digraph Tree {
node [shape=box, style="filled, rounded", color="black", fontname=helvetica] ;
edge [fontname=helvetica] ;
0 [label="Principal Component 1 <= -1.91\nentropy = 1.57\nsamples = 199\nvalue = [112, 86, 118]\nclass = 2", fillcolor="#fbf9fe"] ;
1 [label="Principal Component 9 <= 0.94\nentropy = 0.92\nsamples = 17\nvalue = [0, 9, 18]\nclass = 2", fillcolor="#c09cf2"] ;
0 -> 1 [labeldistance=2.5, labelangle=45, headlabel="True"] ;
2 [label="Principal Component 8 <= -0.26\nentropy = 0.81\nsamples = 15\nvalue = [0, 6, 18]\nclass = 2", fillcolor="#ab7bee"] ;
1 -> 2 ;
3 [label="Principal Component 9 <= -0.44\nentropy = 0.65\nsamples = 4\nvalue = [0, 5, 1]\nclass = 1", fillcolor="#61ea9a"] ;
2 -> 3 ;
4 [label="entropy = 0.0\nsamples = 1\nvalue = [0, 0, 1]\nclass = 2", fillcolor="#8139e5"] ;
3 -> 4 ;
5 [label="entropy = 0.0\nsamples = 3\nvalue = [0, 5, 0]\nclass = 1", fillcolor="#39e581"] ;
3 -> 5 ;
6 [label="Principal Component 9 <= -0.77\nentropy = 0.31\nsamples = 11\nvalue = [0, 1, 17]\nclass = 2", fillcolor="#8845e7"] ;
2 -> 6 ;
7 [label="entropy = 0.0\nsamples = 1\nvalue = [0, 1, 0]\nclass = 1", fillcolor="#39e581"] ;
6 -> 7 ;
8 [label="entropy = 0.0\nsamples = 10\nvalue = [0, 0, 17]\nclass = 2", fillcolor="#8139e5"] ;
6 -> 8 ;
9 [label="entropy = 0.0\nsamples = 2\nvalue = [0, 3, 0]\nclass = 1", fillcolor="#39e581"] ;
1 -> 9 ;
10 [label="Principal Component 3 <= -1.28\nentropy = 1.57\nsamples = 182\nvalue = [112, 77, 100]\nclass = 0", fillcolor="#fdf7f2"] ;
0 -> 10 [labeldistance=2.5, labelangle=-45, headlabel="False"] ;
11 [label="Principal Component 9 <= 0.16\nentropy = 1.31\nsamples = 36\nvalue = [21, 6, 36]\nclass = 2", fillcolor="#d2b8f6"] ;
10 -> 11 ;
12 [label="Principal Component 8 <= 0.15\nentropy = 1.2\nsamples = 19\nvalue = [4, 6, 22]\nclass = 2", fillcolor="#b185ef"] ;
11 -> 12 ;
13 [label="Principal Component 6 <= 0.26\nentropy = 1.41\nsamples = 12\nvalue = [3, 6, 11]\nclass = 2", fillcolor="#d2b8f6"] ;
12 -> 13 ;
14 [label="Principal Component 1 <= -1.39\nentropy = 1.22\nsamples = 6\nvalue = [1, 6, 2]\nclass = 1", fillcolor="#8ef0b7"] ;
13 -> 14 ;
15 [label="entropy = 0.0\nsamples = 1\nvalue = [0, 0, 2]\nclass = 2", fillcolor="#8139e5"] ;
14 -> 15 ;
16 [label="Principal Component 13 <= -0.38\nentropy = 0.59\nsamples = 5\nvalue = [1, 6, 0]\nclass = 1", fillcolor="#5ae996"] ;
14 -> 16 ;
17 [label="Principal Component 4 <= 0.02\nentropy = 1.0\nsamples = 2\nvalue = [1, 1, 0]\nclass = 0", fillcolor="#ffffff"] ;
16 -> 17 ;
18 [label="entropy = 0.0\nsamples = 1\nvalue = [0, 1, 0]\nclass = 1", fillcolor="#39e581"] ;
17 -> 18 ;
19 [label="entropy = 0.0\nsamples = 1\nvalue = [1, 0, 0]\nclass = 0", fillcolor="#e58139"] ;
17 -> 19 ;
20 [label="entropy = 0.0\nsamples = 3\nvalue = [0, 5, 0]\nclass = 1", fillcolor="#39e581"] ;
16 -> 20 ;
21 [label="Principal Component 9 <= -1.44\nentropy = 0.68\nsamples = 6\nvalue = [2, 0, 9]\nclass = 2", fillcolor="#9d65eb"] ;
13 -> 21 ;
22 [label="entropy = 0.0\nsamples = 1\nvalue = [1, 0, 0]\nclass = 0", fillcolor="#e58139"] ;
21 -> 22 ;
23 [label="Principal Component 3 <= -1.71\nentropy = 0.47\nsamples = 5\nvalue = [1, 0, 9]\nclass = 2", fillcolor="#8f4fe8"] ;
21 -> 23 ;
24 [label="entropy = 0.0\nsamples = 1\nvalue = [1, 0, 0]\nclass = 0", fillcolor="#e58139"] ;
23 -> 24 ;
25 [label="entropy = 0.0\nsamples = 4\nvalue = [0, 0, 9]\nclass = 2", fillcolor="#8139e5"] ;
23 -> 25 ;
26 [label="Principal Component 14 <= -0.44\nentropy = 0.41\nsamples = 7\nvalue = [1, 0, 11]\nclass = 2", fillcolor="#8c4be7"] ;
12 -> 26 ;
27 [label="Principal Component 1 <= -1.12\nentropy = 1.0\nsamples = 2\nvalue = [1, 0, 1]\nclass = 0", fillcolor="#ffffff"] ;
26 -> 27 ;
28 [label="entropy = 0.0\nsamples = 1\nvalue = [0, 0, 1]\nclass = 2", fillcolor="#8139e5"] ;
27 -> 28 ;
29 [label="entropy = 0.0\nsamples = 1\nvalue = [1, 0, 0]\nclass = 0", fillcolor="#e58139"] ;
27 -> 29 ;
30 [label="entropy = 0.0\nsamples = 5\nvalue = [0, 0, 10]\nclass = 2", fillcolor="#8139e5"] ;
26 -> 30 ;
31 [label="Principal Component 13 <= -0.2\nentropy = 0.99\nsamples = 17\nvalue = [17, 0, 14]\nclass = 0", fillcolor="#fae9dc"] ;
11 -> 31 ;
32 [label="Principal Component 3 <= -2.02\nentropy = 0.75\nsamples = 7\nvalue = [3, 0, 11]\nclass = 2", fillcolor="#a36fec"] ;
31 -> 32 ;
33 [label="entropy = 0.0\nsamples = 2\nvalue = [3, 0, 0]\nclass = 0", fillcolor="#e58139"] ;
32 -> 33 ;
34 [label="entropy = 0.0\nsamples = 5\nvalue = [0, 0, 11]\nclass = 2", fillcolor="#8139e5"] ;
32 -> 34 ;
35 [label="Principal Component 12 <= -0.15\nentropy = 0.67\nsamples = 10\nvalue = [14, 0, 3]\nclass = 0", fillcolor="#eb9c63"] ;
31 -> 35 ;
36 [label="entropy = 0.0\nsamples = 4\nvalue = [11, 0, 0]\nclass = 0", fillcolor="#e58139"] ;
35 -> 36 ;
37 [label="Principal Component 4 <= -0.16\nentropy = 1.0\nsamples = 6\nvalue = [3, 0, 3]\nclass = 0", fillcolor="#ffffff"] ;
35 -> 37 ;
38 [label="entropy = 0.0\nsamples = 3\nvalue = [3, 0, 0]\nclass = 0", fillcolor="#e58139"] ;
37 -> 38 ;
39 [label="entropy = 0.0\nsamples = 3\nvalue = [0, 0, 3]\nclass = 2", fillcolor="#8139e5"] ;
37 -> 39 ;
40 [label="Principal Component 9 <= -0.66\nentropy = 1.57\nsamples = 146\nvalue = [91, 71, 64]\nclass = 0", fillcolor="#fcefe5"] ;
10 -> 40 ;
41 [label="Principal Component 14 <= 0.38\nentropy = 1.38\nsamples = 27\nvalue = [17, 23, 5]\nclass = 1", fillcolor="#d5f9e4"] ;
40 -> 41 ;
42 [label="Principal Component 8 <= 0.76\nentropy = 1.39\nsamples = 21\nvalue = [17, 13, 4]\nclass = 0", fillcolor="#fae7d9"] ;
41 -> 42 ;
43 [label="Principal Component 7 <= -0.83\nentropy = 1.2\nsamples = 16\nvalue = [11, 13, 1]\nclass = 1", fillcolor="#e3fbed"] ;
42 -> 43 ;
44 [label="Principal Component 2 <= 1.42\nentropy = 0.65\nsamples = 4\nvalue = [0, 5, 1]\nclass = 1", fillcolor="#61ea9a"] ;
43 -> 44 ;
45 [label="entropy = 0.0\nsamples = 3\nvalue = [0, 5, 0]\nclass = 1", fillcolor="#39e581"] ;
44 -> 45 ;
46 [label="entropy = 0.0\nsamples = 1\nvalue = [0, 0, 1]\nclass = 2", fillcolor="#8139e5"] ;
44 -> 46 ;
47 [label="Principal Component 14 <= 0.07\nentropy = 0.98\nsamples = 12\nvalue = [11, 8, 0]\nclass = 0", fillcolor="#f8ddc9"] ;
43 -> 47 ;
48 [label="Principal Component 11 <= 0.15\nentropy = 0.99\nsamples = 9\nvalue = [6, 8, 0]\nclass = 1", fillcolor="#cef8e0"] ;
47 -> 48 ;
49 [label="Principal Component 11 <= -0.47\nentropy = 0.81\nsamples = 5\nvalue = [6, 2, 0]\nclass = 0", fillcolor="#eeab7b"] ;
48 -> 49 ;
50 [label="entropy = 0.0\nsamples = 2\nvalue = [0, 2, 0]\nclass = 1", fillcolor="#39e581"] ;
49 -> 50 ;
51 [label="entropy = 0.0\nsamples = 3\nvalue = [6, 0, 0]\nclass = 0", fillcolor="#e58139"] ;
49 -> 51 ;
52 [label="entropy = 0.0\nsamples = 4\nvalue = [0, 6, 0]\nclass = 1", fillcolor="#39e581"] ;
48 -> 52 ;
53 [label="entropy = 0.0\nsamples = 3\nvalue = [5, 0, 0]\nclass = 0", fillcolor="#e58139"] ;
47 -> 53 ;
54 [label="Principal Component 7 <= -0.02\nentropy = 0.92\nsamples = 5\nvalue = [6, 0, 3]\nclass = 0", fillcolor="#f2c09c"] ;
42 -> 54 ;
55 [label="entropy = 0.0\nsamples = 3\nvalue = [6, 0, 0]\nclass = 0", fillcolor="#e58139"] ;
54 -> 55 ;
56 [label="entropy = 0.0\nsamples = 2\nvalue = [0, 0, 3]\nclass = 2", fillcolor="#8139e5"] ;
54 -> 56 ;
57 [label="Principal Component 15 <= 0.48\nentropy = 0.44\nsamples = 6\nvalue = [0, 10, 1]\nclass = 1", fillcolor="#4de88e"] ;
41 -> 57 ;
58 [label="entropy = 0.0\nsamples = 5\nvalue = [0, 10, 0]\nclass = 1", fillcolor="#39e581"] ;
57 -> 58 ;
59 [label="entropy = 0.0\nsamples = 1\nvalue = [0, 0, 1]\nclass = 2", fillcolor="#8139e5"] ;
57 -> 59 ;
60 [label="Principal Component 7 <= 0.18\nentropy = 1.56\nsamples = 119\nvalue = [74, 48, 59]\nclass = 0", fillcolor="#fcf0e7"] ;
40 -> 60 ;
61 [label="Principal Component 2 <= 0.62\nentropy = 1.56\nsamples = 72\nvalue = [27, 37, 41]\nclass = 2", fillcolor="#f8f3fd"] ;
60 -> 61 ;
62 [label="Principal Component 4 <= -1.2\nentropy = 1.4\nsamples = 45\nvalue = [11, 16, 36]\nclass = 2", fillcolor="#c9abf4"] ;
61 -> 62 ;
63 [label="Principal Component 9 <= 0.7\nentropy = 0.76\nsamples = 6\nvalue = [0, 7, 2]\nclass = 1", fillcolor="#72eca5"] ;
62 -> 63 ;
64 [label="Principal Component 13 <= -0.25\nentropy = 0.92\nsamples = 3\nvalue = [0, 1, 2]\nclass = 2", fillcolor="#c09cf2"] ;
63 -> 64 ;
65 [label="entropy = 0.0\nsamples = 1\nvalue = [0, 1, 0]\nclass = 1", fillcolor="#39e581"] ;
64 -> 65 ;
66 [label="entropy = 0.0\nsamples = 2\nvalue = [0, 0, 2]\nclass = 2", fillcolor="#8139e5"] ;
64 -> 66 ;
67 [label="entropy = 0.0\nsamples = 3\nvalue = [0, 6, 0]\nclass = 1", fillcolor="#39e581"] ;
63 -> 67 ;
68 [label="Principal Component 13 <= -0.81\nentropy = 1.32\nsamples = 39\nvalue = [11, 9, 34]\nclass = 2", fillcolor="#bc95f1"] ;
62 -> 68 ;
69 [label="Principal Component 12 <= -0.05\nentropy = 0.92\nsamples = 5\nvalue = [4, 2, 0]\nclass = 0", fillcolor="#f2c09c"] ;
68 -> 69 ;
70 [label="entropy = 0.0\nsamples = 2\nvalue = [3, 0, 0]\nclass = 0", fillcolor="#e58139"] ;
69 -> 70 ;
71 [label="Principal Component 15 <= 0.11\nentropy = 0.92\nsamples = 3\nvalue = [1, 2, 0]\nclass = 1", fillcolor="#9cf2c0"] ;
69 -> 71 ;
72 [label="entropy = 0.0\nsamples = 2\nvalue = [0, 2, 0]\nclass = 1", fillcolor="#39e581"] ;
71 -> 72 ;
73 [label="entropy = 0.0\nsamples = 1\nvalue = [1, 0, 0]\nclass = 0", fillcolor="#e58139"] ;
71 -> 73 ;
74 [label="Principal Component 2 <= -0.08\nentropy = 1.16\nsamples = 34\nvalue = [7, 7, 34]\nclass = 2", fillcolor="#ac7dee"] ;
68 -> 74 ;
75 [label="Principal Component 9 <= -0.14\nentropy = 1.35\nsamples = 26\nvalue = [7, 7, 22]\nclass = 2", fillcolor="#be99f2"] ;
74 -> 75 ;
76 [label="Principal Component 0 <= 4.12\nentropy = 0.54\nsamples = 10\nvalue = [2, 0, 14]\nclass = 2", fillcolor="#9355e9"] ;
75 -> 76 ;
77 [label="entropy = 0.0\nsamples = 8\nvalue = [0, 0, 14]\nclass = 2", fillcolor="#8139e5"] ;
76 -> 77 ;
78 [label="entropy = 0.0\nsamples = 2\nvalue = [2, 0, 0]\nclass = 0", fillcolor="#e58139"] ;
76 -> 78 ;
79 [label="Principal Component 12 <= 0.56\nentropy = 1.56\nsamples = 16\nvalue = [5, 7, 8]\nclass = 2", fillcolor="#f5f0fd"] ;
75 -> 79 ;
80 [label="Principal Component 5 <= -0.82\nentropy = 1.4\nsamples = 14\nvalue = [2, 7, 8]\nclass = 2", fillcolor="#f2ebfc"] ;
79 -> 80 ;
81 [label="Principal Component 9 <= 0.12\nentropy = 0.65\nsamples = 4\nvalue = [1, 0, 5]\nclass = 2", fillcolor="#9a61ea"] ;
80 -> 81 ;
82 [label="entropy = 0.0\nsamples = 1\nvalue = [1, 0, 0]\nclass = 0", fillcolor="#e58139"] ;
81 -> 82 ;
83 [label="entropy = 0.0\nsamples = 3\nvalue = [0, 0, 5]\nclass = 2", fillcolor="#8139e5"] ;
81 -> 83 ;
84 [label="Principal Component 0 <= 14.71\nentropy = 1.24\nsamples = 10\nvalue = [1, 7, 3]\nclass = 1", fillcolor="#9cf2c0"] ;
80 -> 84 ;
85 [label="Principal Component 14 <= 0.38\nentropy = 0.88\nsamples = 9\nvalue = [0, 7, 3]\nclass = 1", fillcolor="#8ef0b7"] ;
84 -> 85 ;
86 [label="Principal Component 6 <= -0.61\nentropy = 0.54\nsamples = 7\nvalue = [0, 7, 1]\nclass = 1", fillcolor="#55e993"] ;
85 -> 86 ;
87 [label="entropy = 0.0\nsamples = 1\nvalue = [0, 0, 1]\nclass = 2", fillcolor="#8139e5"] ;
86 -> 87 ;
88 [label="entropy = 0.0\nsamples = 6\nvalue = [0, 7, 0]\nclass = 1", fillcolor="#39e581"] ;
86 -> 88 ;
89 [label="entropy = 0.0\nsamples = 2\nvalue = [0, 0, 2]\nclass = 2", fillcolor="#8139e5"] ;
85 -> 89 ;
90 [label="entropy = 0.0\nsamples = 1\nvalue = [1, 0, 0]\nclass = 0", fillcolor="#e58139"] ;
84 -> 90 ;
91 [label="entropy = 0.0\nsamples = 2\nvalue = [3, 0, 0]\nclass = 0", fillcolor="#e58139"] ;
79 -> 91 ;
92 [label="entropy = 0.0\nsamples = 8\nvalue = [0, 0, 12]\nclass = 2", fillcolor="#8139e5"] ;
74 -> 92 ;
93 [label="Principal Component 15 <= 0.39\nentropy = 1.4\nsamples = 27\nvalue = [16, 21, 5]\nclass = 1", fillcolor="#d9fae7"] ;
61 -> 93 ;
94 [label="Principal Component 9 <= -0.57\nentropy = 1.14\nsamples = 21\nvalue = [8, 21, 2]\nclass = 1", fillcolor="#8ff0b8"] ;
93 -> 94 ;
95 [label="entropy = 0.0\nsamples = 2\nvalue = [4, 0, 0]\nclass = 0", fillcolor="#e58139"] ;
94 -> 95 ;
96 [label="Principal Component 11 <= 1.08\nentropy = 0.97\nsamples = 19\nvalue = [4, 21, 2]\nclass = 1", fillcolor="#6deca2"] ;
94 -> 96 ;
97 [label="Principal Component 12 <= 0.7\nentropy = 0.27\nsamples = 16\nvalue = [1, 21, 0]\nclass = 1", fillcolor="#42e687"] ;
96 -> 97 ;
98 [label="entropy = 0.0\nsamples = 14\nvalue = [0, 19, 0]\nclass = 1", fillcolor="#39e581"] ;
97 -> 98 ;
99 [label="Principal Component 12 <= 0.85\nentropy = 0.92\nsamples = 2\nvalue = [1, 2, 0]\nclass = 1", fillcolor="#9cf2c0"] ;
97 -> 99 ;
100 [label="entropy = 0.0\nsamples = 1\nvalue = [1, 0, 0]\nclass = 0", fillcolor="#e58139"] ;
99 -> 100 ;
101 [label="entropy = 0.0\nsamples = 1\nvalue = [0, 2, 0]\nclass = 1", fillcolor="#39e581"] ;
99 -> 101 ;
102 [label="Principal Component 14 <= -0.33\nentropy = 0.97\nsamples = 3\nvalue = [3, 0, 2]\nclass = 0", fillcolor="#f6d5bd"] ;
96 -> 102 ;
103 [label="entropy = 0.0\nsamples = 1\nvalue = [0, 0, 2]\nclass = 2", fillcolor="#8139e5"] ;
102 -> 103 ;
104 [label="entropy = 0.0\nsamples = 2\nvalue = [3, 0, 0]\nclass = 0", fillcolor="#e58139"] ;
102 -> 104 ;
105 [label="Principal Component 15 <= 0.41\nentropy = 0.85\nsamples = 6\nvalue = [8, 0, 3]\nclass = 0", fillcolor="#efb083"] ;
93 -> 105 ;
106 [label="entropy = 0.0\nsamples = 1\nvalue = [0, 0, 2]\nclass = 2", fillcolor="#8139e5"] ;
105 -> 106 ;
107 [label="Principal Component 5 <= 1.22\nentropy = 0.5\nsamples = 5\nvalue = [8, 0, 1]\nclass = 0", fillcolor="#e89152"] ;
105 -> 107 ;
108 [label="entropy = 0.0\nsamples = 4\nvalue = [8, 0, 0]\nclass = 0", fillcolor="#e58139"] ;
107 -> 108 ;
109 [label="entropy = 0.0\nsamples = 1\nvalue = [0, 0, 1]\nclass = 2", fillcolor="#8139e5"] ;
107 -> 109 ;
110 [label="Principal Component 12 <= -0.43\nentropy = 1.32\nsamples = 47\nvalue = [47, 11, 18]\nclass = 0", fillcolor="#f2c09c"] ;
60 -> 110 ;
111 [label="Principal Component 15 <= -0.42\nentropy = 1.57\nsamples = 18\nvalue = [9, 8, 11]\nclass = 2", fillcolor="#f2eafc"] ;
110 -> 111 ;
112 [label="Principal Component 8 <= -0.65\nentropy = 0.99\nsamples = 5\nvalue = [1, 7, 1]\nclass = 1", fillcolor="#6aeca0"] ;
111 -> 112 ;
113 [label="entropy = 0.0\nsamples = 1\nvalue = [1, 0, 0]\nclass = 0", fillcolor="#e58139"] ;
112 -> 113 ;
114 [label="Principal Component 3 <= 1.5\nentropy = 0.54\nsamples = 4\nvalue = [0, 7, 1]\nclass = 1", fillcolor="#55e993"] ;
112 -> 114 ;
115 [label="entropy = 0.0\nsamples = 3\nvalue = [0, 7, 0]\nclass = 1", fillcolor="#39e581"] ;
114 -> 115 ;
116 [label="entropy = 0.0\nsamples = 1\nvalue = [0, 0, 1]\nclass = 2", fillcolor="#8139e5"] ;
114 -> 116 ;
117 [label="Principal Component 11 <= -0.65\nentropy = 1.24\nsamples = 13\nvalue = [8, 1, 10]\nclass = 2", fillcolor="#e8dbfa"] ;
111 -> 117 ;
118 [label="entropy = 0.0\nsamples = 4\nvalue = [0, 0, 7]\nclass = 2", fillcolor="#8139e5"] ;
117 -> 118 ;
119 [label="Principal Component 3 <= 0.63\nentropy = 1.19\nsamples = 9\nvalue = [8, 1, 3]\nclass = 0", fillcolor="#f1b991"] ;
117 -> 119 ;
120 [label="Principal Component 10 <= -0.87\nentropy = 1.37\nsamples = 4\nvalue = [1, 1, 3]\nclass = 2", fillcolor="#c09cf2"] ;
119 -> 120 ;
121 [label="entropy = 0.0\nsamples = 1\nvalue = [1, 0, 0]\nclass = 0", fillcolor="#e58139"] ;
120 -> 121 ;
122 [label="Principal Component 7 <= 0.66\nentropy = 0.81\nsamples = 3\nvalue = [0, 1, 3]\nclass = 2", fillcolor="#ab7bee"] ;
120 -> 122 ;
123 [label="entropy = 0.0\nsamples = 2\nvalue = [0, 0, 3]\nclass = 2", fillcolor="#8139e5"] ;
122 -> 123 ;
124 [label="entropy = 0.0\nsamples = 1\nvalue = [0, 1, 0]\nclass = 1", fillcolor="#39e581"] ;
122 -> 124 ;
125 [label="entropy = 0.0\nsamples = 5\nvalue = [7, 0, 0]\nclass = 0", fillcolor="#e58139"] ;
119 -> 125 ;
126 [label="Principal Component 2 <= -1.58\nentropy = 0.92\nsamples = 29\nvalue = [38, 3, 7]\nclass = 0", fillcolor="#eba069"] ;
110 -> 126 ;
127 [label="Principal Component 9 <= 1.3\nentropy = 0.95\nsamples = 5\nvalue = [3, 0, 5]\nclass = 2", fillcolor="#cdb0f5"] ;
126 -> 127 ;
128 [label="entropy = 0.0\nsamples = 3\nvalue = [0, 0, 5]\nclass = 2", fillcolor="#8139e5"] ;
127 -> 128 ;
129 [label="entropy = 0.0\nsamples = 2\nvalue = [3, 0, 0]\nclass = 0", fillcolor="#e58139"] ;
127 -> 129 ;
130 [label="Principal Component 1 <= -0.77\nentropy = 0.66\nsamples = 24\nvalue = [35, 3, 2]\nclass = 0", fillcolor="#e99254"] ;
126 -> 130 ;
131 [label="Principal Component 10 <= -0.19\nentropy = 1.56\nsamples = 5\nvalue = [3, 2, 2]\nclass = 0", fillcolor="#fae6d7"] ;
130 -> 131 ;
132 [label="entropy = 0.0\nsamples = 1\nvalue = [0, 2, 0]\nclass = 1", fillcolor="#39e581"] ;
131 -> 132 ;
133 [label="Principal Component 13 <= -0.19\nentropy = 0.97\nsamples = 4\nvalue = [3, 0, 2]\nclass = 0", fillcolor="#f6d5bd"] ;
131 -> 133 ;
134 [label="entropy = 0.0\nsamples = 2\nvalue = [3, 0, 0]\nclass = 0", fillcolor="#e58139"] ;
133 -> 134 ;
135 [label="entropy = 0.0\nsamples = 2\nvalue = [0, 0, 2]\nclass = 2", fillcolor="#8139e5"] ;
133 -> 135 ;
136 [label="Principal Component 13 <= -0.97\nentropy = 0.2\nsamples = 19\nvalue = [32, 1, 0]\nclass = 0", fillcolor="#e6853f"] ;
130 -> 136 ;
137 [label="entropy = 0.0\nsamples = 1\nvalue = [0, 1, 0]\nclass = 1", fillcolor="#39e581"] ;
136 -> 137 ;
138 [label="entropy = 0.0\nsamples = 18\nvalue = [32, 0, 0]\nclass = 0", fillcolor="#e58139"] ;
136 -> 138 ;
}