digraph Tree {
node [shape=box, style="filled, rounded", color="black", fontname=helvetica] ;
edge [fontname=helvetica] ;
0 [label="sex <= 0.5\nentropy = 3.66\nsamples = 199\nvalue = [29, 4, 10, 10, 31, 28, 48, 38, 19, 27, 18, 29\n8, 5, 10, 2, 0]\nclass = 6", fillcolor="#f8fefb"] ;
1 [label="paid <= 0.5\nentropy = 3.53\nsamples = 107\nvalue = [17, 0, 9, 7, 17, 18, 23, 20, 7, 16, 14, 18, 1\n3, 1, 1, 0]\nclass = 6", fillcolor="#fbfefd"] ;
0 -> 1 [labeldistance=2.5, labelangle=45, headlabel="True"] ;
2 [label="Fedu <= 3.5\nentropy = 3.38\nsamples = 49\nvalue = [11, 0, 6, 3, 0, 10, 5, 11, 2, 9, 4, 10, 1, 3\n0, 1, 0]\nclass = 0", fillcolor="#ffffff"] ;
1 -> 2 ;
3 [label="absences <= 1.5\nentropy = 3.17\nsamples = 36\nvalue = [10, 0, 5, 1, 0, 10, 5, 8, 2, 8, 1, 2, 1, 2\n0, 0, 0]\nclass = 0", fillcolor="#ffffff"] ;
2 -> 3 ;
4 [label="internet <= 0.5\nentropy = 1.99\nsamples = 10\nvalue = [10, 0, 1, 0, 0, 2, 2, 0, 1, 0, 0, 2, 0, 0\n0, 0, 0]\nclass = 0", fillcolor="#f2c09c"] ;
3 -> 4 ;
5 [label="3 <= 0.5\nentropy = 1.92\nsamples = 4\nvalue = [1, 0, 1, 0, 0, 2, 0, 0, 1, 0, 0, 0, 0, 0\n0, 0, 0]\nclass = 5", fillcolor="#cef8d5"] ;
4 -> 5 ;
6 [label="age <= 1.0\nentropy = 1.0\nsamples = 2\nvalue = [0, 0, 1, 0, 0, 0, 0, 0, 1, 0, 0, 0, 0, 0\n0, 0, 0]\nclass = 2", fillcolor="#ffffff"] ;
5 -> 6 ;
7 [label="entropy = 0.0\nsamples = 1\nvalue = [0, 0, 1, 0, 0, 0, 0, 0, 0, 0, 0, 0, 0, 0\n0, 0, 0]\nclass = 2", fillcolor="#d1e539"] ;
6 -> 7 ;
8 [label="entropy = 0.0\nsamples = 1\nvalue = [0, 0, 0, 0, 0, 0, 0, 0, 1, 0, 0, 0, 0, 0\n0, 0, 0]\nclass = 8", fillcolor="#39bde5"] ;
6 -> 8 ;
9 [label="famrel <= 3.5\nentropy = 0.92\nsamples = 2\nvalue = [1, 0, 0, 0, 0, 2, 0, 0, 0, 0, 0, 0, 0, 0\n0, 0, 0]\nclass = 5", fillcolor="#9cf2aa"] ;
5 -> 9 ;
10 [label="entropy = 0.0\nsamples = 1\nvalue = [1, 0, 0, 0, 0, 0, 0, 0, 0, 0, 0, 0, 0, 0\n0, 0, 0]\nclass = 0", fillcolor="#e58139"] ;
9 -> 10 ;
11 [label="entropy = 0.0\nsamples = 1\nvalue = [0, 0, 0, 0, 0, 2, 0, 0, 0, 0, 0, 0, 0, 0\n0, 0, 0]\nclass = 5", fillcolor="#39e556"] ;
9 -> 11 ;
12 [label="Walc <= 1.5\nentropy = 1.2\nsamples = 6\nvalue = [9, 0, 0, 0, 0, 0, 2, 0, 0, 0, 0, 2, 0, 0\n0, 0, 0]\nclass = 0", fillcolor="#eeaf81"] ;
4 -> 12 ;
13 [label="entropy = 0.0\nsamples = 4\nvalue = [9, 0, 0, 0, 0, 0, 0, 0, 0, 0, 0, 0, 0, 0\n0, 0, 0]\nclass = 0", fillcolor="#e58139"] ;
12 -> 13 ;
14 [label="absences <= 0.5\nentropy = 1.0\nsamples = 2\nvalue = [0, 0, 0, 0, 0, 0, 2, 0, 0, 0, 0, 2, 0, 0\n0, 0, 0]\nclass = 6", fillcolor="#ffffff"] ;
12 -> 14 ;
15 [label="entropy = 0.0\nsamples = 1\nvalue = [0, 0, 0, 0, 0, 0, 2, 0, 0, 0, 0, 0, 0, 0\n0, 0, 0]\nclass = 6", fillcolor="#39e595"] ;
14 -> 15 ;
16 [label="entropy = 0.0\nsamples = 1\nvalue = [0, 0, 0, 0, 0, 0, 0, 0, 0, 0, 0, 2, 0, 0\n0, 0, 0]\nclass = 11", fillcolor="#6a39e5"] ;
14 -> 16 ;
17 [label="0 <= 0.5\nentropy = 2.86\nsamples = 26\nvalue = [0, 0, 4, 1, 0, 8, 3, 8, 1, 8, 1, 0, 1, 2\n0, 0, 0]\nclass = 5", fillcolor="#ffffff"] ;
3 -> 17 ;
18 [label="Fedu <= 1.5\nentropy = 2.79\nsamples = 18\nvalue = [0, 0, 2, 1, 0, 8, 2, 7, 1, 1, 1, 0, 1, 2\n0, 0, 0]\nclass = 5", fillcolor="#f5fef6"] ;
17 -> 18 ;
19 [label="goout <= 2.5\nentropy = 2.25\nsamples = 5\nvalue = [0, 0, 0, 1, 0, 0, 1, 2, 1, 1, 0, 0, 0, 0\n0, 0, 0]\nclass = 7", fillcolor="#d7faf6"] ;
18 -> 19 ;
20 [label="15 <= 0.5\nentropy = 1.58\nsamples = 3\nvalue = [0, 0, 0, 1, 0, 0, 0, 0, 1, 1, 0, 0, 0, 0\n0, 0, 0]\nclass = 3", fillcolor="#ffffff"] ;
19 -> 20 ;
21 [label="entropy = 0.0\nsamples = 1\nvalue = [0, 0, 0, 0, 0, 0, 0, 0, 1, 0, 0, 0, 0, 0\n0, 0, 0]\nclass = 8", fillcolor="#39bde5"] ;
20 -> 21 ;
22 [label="7 <= 0.5\nentropy = 1.0\nsamples = 2\nvalue = [0, 0, 0, 1, 0, 0, 0, 0, 0, 1, 0, 0, 0, 0\n0, 0, 0]\nclass = 3", fillcolor="#ffffff"] ;
20 -> 22 ;
23 [label="entropy = 0.0\nsamples = 1\nvalue = [0, 0, 0, 0, 0, 0, 0, 0, 0, 1, 0, 0, 0, 0\n0, 0, 0]\nclass = 9", fillcolor="#3981e5"] ;
22 -> 23 ;
24 [label="entropy = 0.0\nsamples = 1\nvalue = [0, 0, 0, 1, 0, 0, 0, 0, 0, 0, 0, 0, 0, 0\n0, 0, 0]\nclass = 3", fillcolor="#95e539"] ;
22 -> 24 ;
25 [label="romantic <= 0.5\nentropy = 0.92\nsamples = 2\nvalue = [0, 0, 0, 0, 0, 0, 1, 2, 0, 0, 0, 0, 0, 0\n0, 0, 0]\nclass = 7", fillcolor="#9cf2e8"] ;
19 -> 25 ;
26 [label="entropy = 0.0\nsamples = 1\nvalue = [0, 0, 0, 0, 0, 0, 1, 0, 0, 0, 0, 0, 0, 0\n0, 0, 0]\nclass = 6", fillcolor="#39e595"] ;
25 -> 26 ;
27 [label="entropy = 0.0\nsamples = 1\nvalue = [0, 0, 0, 0, 0, 0, 0, 2, 0, 0, 0, 0, 0, 0\n0, 0, 0]\nclass = 7", fillcolor="#39e5d1"] ;
25 -> 27 ;
28 [label="studytime <= 0.5\nentropy = 2.34\nsamples = 13\nvalue = [0, 0, 2, 0, 0, 8, 1, 5, 0, 0, 1, 0, 1, 2\n0, 0, 0]\nclass = 5", fillcolor="#d7fadd"] ;
18 -> 28 ;
29 [label="entropy = 0.0\nsamples = 1\nvalue = [0, 0, 2, 0, 0, 0, 0, 0, 0, 0, 0, 0, 0, 0\n0, 0, 0]\nclass = 2", fillcolor="#d1e539"] ;
28 -> 29 ;
30 [label="9 <= 0.5\nentropy = 2.08\nsamples = 12\nvalue = [0, 0, 0, 0, 0, 8, 1, 5, 0, 0, 1, 0, 1, 2\n0, 0, 0]\nclass = 5", fillcolor="#d1f9d8"] ;
28 -> 30 ;
31 [label="Walc <= 1.5\nentropy = 1.77\nsamples = 11\nvalue = [0, 0, 0, 0, 0, 8, 1, 5, 0, 0, 1, 0, 1, 0\n0, 0, 0]\nclass = 5", fillcolor="#c9f8d1"] ;
30 -> 31 ;
32 [label="romantic <= 0.5\nentropy = 1.3\nsamples = 8\nvalue = [0, 0, 0, 0, 0, 7, 1, 5, 0, 0, 0, 0, 0, 0\n0, 0, 0]\nclass = 5", fillcolor="#cef8d5"] ;
31 -> 32 ;
33 [label="activities <= 0.5\nentropy = 1.3\nsamples = 5\nvalue = [0, 0, 0, 0, 0, 5, 1, 2, 0, 0, 0, 0, 0, 0\n0, 0, 0]\nclass = 5", fillcolor="#9cf2aa"] ;
32 -> 33 ;
34 [label="entropy = 0.0\nsamples = 1\nvalue = [0, 0, 0, 0, 0, 0, 0, 2, 0, 0, 0, 0, 0, 0\n0, 0, 0]\nclass = 7", fillcolor="#39e5d1"] ;
33 -> 34 ;
35 [label="famrel <= 3.5\nentropy = 0.65\nsamples = 4\nvalue = [0, 0, 0, 0, 0, 5, 1, 0, 0, 0, 0, 0, 0, 0\n0, 0, 0]\nclass = 5", fillcolor="#61ea78"] ;
33 -> 35 ;
36 [label="entropy = 0.0\nsamples = 3\nvalue = [0, 0, 0, 0, 0, 5, 0, 0, 0, 0, 0, 0, 0, 0\n0, 0, 0]\nclass = 5", fillcolor="#39e556"] ;
35 -> 36 ;
37 [label="entropy = 0.0\nsamples = 1\nvalue = [0, 0, 0, 0, 0, 0, 1, 0, 0, 0, 0, 0, 0, 0\n0, 0, 0]\nclass = 6", fillcolor="#39e595"] ;
35 -> 37 ;
38 [label="15 <= 0.5\nentropy = 0.97\nsamples = 3\nvalue = [0, 0, 0, 0, 0, 2, 0, 3, 0, 0, 0, 0, 0, 0\n0, 0, 0]\nclass = 7", fillcolor="#bdf6f0"] ;
32 -> 38 ;
39 [label="entropy = 0.0\nsamples = 1\nvalue = [0, 0, 0, 0, 0, 0, 0, 2, 0, 0, 0, 0, 0, 0\n0, 0, 0]\nclass = 7", fillcolor="#39e5d1"] ;
38 -> 39 ;
40 [label="famsup <= 0.5\nentropy = 0.92\nsamples = 2\nvalue = [0, 0, 0, 0, 0, 2, 0, 1, 0, 0, 0, 0, 0, 0\n0, 0, 0]\nclass = 5", fillcolor="#9cf2aa"] ;
38 -> 40 ;
41 [label="entropy = 0.0\nsamples = 1\nvalue = [0, 0, 0, 0, 0, 0, 0, 1, 0, 0, 0, 0, 0, 0\n0, 0, 0]\nclass = 7", fillcolor="#39e5d1"] ;
40 -> 41 ;
42 [label="entropy = 0.0\nsamples = 1\nvalue = [0, 0, 0, 0, 0, 2, 0, 0, 0, 0, 0, 0, 0, 0\n0, 0, 0]\nclass = 5", fillcolor="#39e556"] ;
40 -> 42 ;
43 [label="romantic <= 0.5\nentropy = 1.58\nsamples = 3\nvalue = [0, 0, 0, 0, 0, 1, 0, 0, 0, 0, 1, 0, 1, 0\n0, 0, 0]\nclass = 5", fillcolor="#ffffff"] ;
31 -> 43 ;
44 [label="famrel <= 3.5\nentropy = 1.0\nsamples = 2\nvalue = [0, 0, 0, 0, 0, 0, 0, 0, 0, 0, 1, 0, 1, 0\n0, 0, 0]\nclass = 10", fillcolor="#ffffff"] ;
43 -> 44 ;
45 [label="entropy = 0.0\nsamples = 1\nvalue = [0, 0, 0, 0, 0, 0, 0, 0, 0, 0, 0, 0, 1, 0\n0, 0, 0]\nclass = 12", fillcolor="#a939e5"] ;
44 -> 45 ;
46 [label="entropy = 0.0\nsamples = 1\nvalue = [0, 0, 0, 0, 0, 0, 0, 0, 0, 0, 1, 0, 0, 0\n0, 0, 0]\nclass = 10", fillcolor="#3944e5"] ;
44 -> 46 ;
47 [label="entropy = 0.0\nsamples = 1\nvalue = [0, 0, 0, 0, 0, 1, 0, 0, 0, 0, 0, 0, 0, 0\n0, 0, 0]\nclass = 5", fillcolor="#39e556"] ;
43 -> 47 ;
48 [label="entropy = 0.0\nsamples = 1\nvalue = [0, 0, 0, 0, 0, 0, 0, 0, 0, 0, 0, 0, 0, 2\n0, 0, 0]\nclass = 13", fillcolor="#e539e5"] ;
30 -> 48 ;
49 [label="Fedu <= 2.5\nentropy = 1.49\nsamples = 8\nvalue = [0, 0, 2, 0, 0, 0, 1, 1, 0, 7, 0, 0, 0, 0\n0, 0, 0]\nclass = 9", fillcolor="#91b9f1"] ;
17 -> 49 ;
50 [label="famrel <= 1.5\nentropy = 1.16\nsamples = 7\nvalue = [0, 0, 2, 0, 0, 0, 0, 1, 0, 7, 0, 0, 0, 0\n0, 0, 0]\nclass = 9", fillcolor="#83b0ef"] ;
49 -> 50 ;
51 [label="entropy = 0.0\nsamples = 1\nvalue = [0, 0, 0, 0, 0, 0, 0, 1, 0, 0, 0, 0, 0, 0\n0, 0, 0]\nclass = 7", fillcolor="#39e5d1"] ;
50 -> 51 ;
52 [label="address <= 0.5\nentropy = 0.76\nsamples = 6\nvalue = [0, 0, 2, 0, 0, 0, 0, 0, 0, 7, 0, 0, 0, 0\n0, 0, 0]\nclass = 9", fillcolor="#72a5ec"] ;
50 -> 52 ;
53 [label="entropy = 0.0\nsamples = 1\nvalue = [0, 0, 1, 0, 0, 0, 0, 0, 0, 0, 0, 0, 0, 0\n0, 0, 0]\nclass = 2", fillcolor="#d1e539"] ;
52 -> 53 ;
54 [label="10 <= 0.5\nentropy = 0.54\nsamples = 5\nvalue = [0, 0, 1, 0, 0, 0, 0, 0, 0, 7, 0, 0, 0, 0\n0, 0, 0]\nclass = 9", fillcolor="#5593e9"] ;
52 -> 54 ;
55 [label="entropy = 0.0\nsamples = 3\nvalue = [0, 0, 0, 0, 0, 0, 0, 0, 0, 5, 0, 0, 0, 0\n0, 0, 0]\nclass = 9", fillcolor="#3981e5"] ;
54 -> 55 ;
56 [label="health <= 0.5\nentropy = 0.92\nsamples = 2\nvalue = [0, 0, 1, 0, 0, 0, 0, 0, 0, 2, 0, 0, 0, 0\n0, 0, 0]\nclass = 9", fillcolor="#9cc0f2"] ;
54 -> 56 ;
57 [label="entropy = 0.0\nsamples = 1\nvalue = [0, 0, 0, 0, 0, 0, 0, 0, 0, 2, 0, 0, 0, 0\n0, 0, 0]\nclass = 9", fillcolor="#3981e5"] ;
56 -> 57 ;
58 [label="entropy = 0.0\nsamples = 1\nvalue = [0, 0, 1, 0, 0, 0, 0, 0, 0, 0, 0, 0, 0, 0\n0, 0, 0]\nclass = 2", fillcolor="#d1e539"] ;
56 -> 58 ;
59 [label="entropy = 0.0\nsamples = 1\nvalue = [0, 0, 0, 0, 0, 0, 1, 0, 0, 0, 0, 0, 0, 0\n0, 0, 0]\nclass = 6", fillcolor="#39e595"] ;
49 -> 59 ;
60 [label="health <= 3.5\nentropy = 2.7\nsamples = 13\nvalue = [1, 0, 1, 2, 0, 0, 0, 3, 0, 1, 3, 8, 0, 1\n0, 1, 0]\nclass = 11", fillcolor="#d6c8f8"] ;
2 -> 60 ;
61 [label="14 <= 0.5\nentropy = 1.84\nsamples = 5\nvalue = [0, 0, 1, 2, 0, 0, 0, 3, 0, 0, 0, 0, 0, 0\n0, 1, 0]\nclass = 7", fillcolor="#d7faf6"] ;
60 -> 61 ;
62 [label="school <= 0.5\nentropy = 1.37\nsamples = 4\nvalue = [0, 0, 1, 0, 0, 0, 0, 3, 0, 0, 0, 0, 0, 0\n0, 1, 0]\nclass = 7", fillcolor="#9cf2e8"] ;
61 -> 62 ;
63 [label="1 <= 0.5\nentropy = 0.81\nsamples = 3\nvalue = [0, 0, 1, 0, 0, 0, 0, 3, 0, 0, 0, 0, 0, 0\n0, 0, 0]\nclass = 7", fillcolor="#7beee0"] ;
62 -> 63 ;
64 [label="romantic <= 0.5\nentropy = 1.0\nsamples = 2\nvalue = [0, 0, 1, 0, 0, 0, 0, 1, 0, 0, 0, 0, 0, 0\n0, 0, 0]\nclass = 2", fillcolor="#ffffff"] ;
63 -> 64 ;
65 [label="entropy = 0.0\nsamples = 1\nvalue = [0, 0, 1, 0, 0, 0, 0, 0, 0, 0, 0, 0, 0, 0\n0, 0, 0]\nclass = 2", fillcolor="#d1e539"] ;
64 -> 65 ;
66 [label="entropy = 0.0\nsamples = 1\nvalue = [0, 0, 0, 0, 0, 0, 0, 1, 0, 0, 0, 0, 0, 0\n0, 0, 0]\nclass = 7", fillcolor="#39e5d1"] ;
64 -> 66 ;
67 [label="entropy = 0.0\nsamples = 1\nvalue = [0, 0, 0, 0, 0, 0, 0, 2, 0, 0, 0, 0, 0, 0\n0, 0, 0]\nclass = 7", fillcolor="#39e5d1"] ;
63 -> 67 ;
68 [label="entropy = 0.0\nsamples = 1\nvalue = [0, 0, 0, 0, 0, 0, 0, 0, 0, 0, 0, 0, 0, 0\n0, 1, 0]\nclass = 15", fillcolor="#e5396d"] ;
62 -> 68 ;
69 [label="entropy = 0.0\nsamples = 1\nvalue = [0, 0, 0, 2, 0, 0, 0, 0, 0, 0, 0, 0, 0, 0\n0, 0, 0]\nclass = 3", fillcolor="#95e539"] ;
61 -> 69 ;
70 [label="nursery <= 0.5\nentropy = 1.75\nsamples = 8\nvalue = [1, 0, 0, 0, 0, 0, 0, 0, 0, 1, 3, 8, 0, 1\n0, 0, 0]\nclass = 11", fillcolor="#bba5f3"] ;
60 -> 70 ;
71 [label="entropy = 0.0\nsamples = 1\nvalue = [0, 0, 0, 0, 0, 0, 0, 0, 0, 0, 2, 0, 0, 0\n0, 0, 0]\nclass = 10", fillcolor="#3944e5"] ;
70 -> 71 ;
72 [label="Walc <= 0.5\nentropy = 1.58\nsamples = 7\nvalue = [1, 0, 0, 0, 0, 0, 0, 0, 0, 1, 1, 8, 0, 1\n0, 0, 0]\nclass = 11", fillcolor="#a081ee"] ;
70 -> 72 ;
73 [label="absences <= 3.5\nentropy = 0.59\nsamples = 3\nvalue = [0, 0, 0, 0, 0, 0, 0, 0, 0, 0, 1, 6, 0, 0\n0, 0, 0]\nclass = 11", fillcolor="#835ae9"] ;
72 -> 73 ;
74 [label="entropy = 0.0\nsamples = 2\nvalue = [0, 0, 0, 0, 0, 0, 0, 0, 0, 0, 0, 6, 0, 0\n0, 0, 0]\nclass = 11", fillcolor="#6a39e5"] ;
73 -> 74 ;
75 [label="entropy = 0.0\nsamples = 1\nvalue = [0, 0, 0, 0, 0, 0, 0, 0, 0, 0, 1, 0, 0, 0\n0, 0, 0]\nclass = 10", fillcolor="#3944e5"] ;
73 -> 75 ;
76 [label="absences <= 8.0\nentropy = 1.92\nsamples = 4\nvalue = [1, 0, 0, 0, 0, 0, 0, 0, 0, 1, 0, 2, 0, 1\n0, 0, 0]\nclass = 11", fillcolor="#dacef8"] ;
72 -> 76 ;
77 [label="goout <= 2.0\nentropy = 1.58\nsamples = 3\nvalue = [1, 0, 0, 0, 0, 0, 0, 0, 0, 1, 0, 0, 0, 1\n0, 0, 0]\nclass = 0", fillcolor="#ffffff"] ;
76 -> 77 ;
78 [label="famrel <= 3.5\nentropy = 1.0\nsamples = 2\nvalue = [1, 0, 0, 0, 0, 0, 0, 0, 0, 0, 0, 0, 0, 1\n0, 0, 0]\nclass = 0", fillcolor="#ffffff"] ;
77 -> 78 ;
79 [label="entropy = 0.0\nsamples = 1\nvalue = [1, 0, 0, 0, 0, 0, 0, 0, 0, 0, 0, 0, 0, 0\n0, 0, 0]\nclass = 0", fillcolor="#e58139"] ;
78 -> 79 ;
80 [label="entropy = 0.0\nsamples = 1\nvalue = [0, 0, 0, 0, 0, 0, 0, 0, 0, 0, 0, 0, 0, 1\n0, 0, 0]\nclass = 13", fillcolor="#e539e5"] ;
78 -> 80 ;
81 [label="entropy = 0.0\nsamples = 1\nvalue = [0, 0, 0, 0, 0, 0, 0, 0, 0, 1, 0, 0, 0, 0\n0, 0, 0]\nclass = 9", fillcolor="#3981e5"] ;
77 -> 81 ;
82 [label="entropy = 0.0\nsamples = 1\nvalue = [0, 0, 0, 0, 0, 0, 0, 0, 0, 0, 0, 2, 0, 0\n0, 0, 0]\nclass = 11", fillcolor="#6a39e5"] ;
76 -> 82 ;
83 [label="13 <= 0.5\nentropy = 3.32\nsamples = 58\nvalue = [6, 0, 3, 4, 17, 8, 18, 9, 5, 7, 10, 8, 0, 0\n1, 0, 0]\nclass = 6", fillcolor="#fcfffe"] ;
1 -> 83 ;
84 [label="7 <= 0.5\nentropy = 2.75\nsamples = 32\nvalue = [3, 0, 1, 1, 15, 4, 13, 3, 1, 6, 0, 3, 0, 0\n0, 0, 0]\nclass = 4", fillcolor="#f6fef4"] ;
83 -> 84 ;
85 [label="age <= 3.5\nentropy = 2.23\nsamples = 16\nvalue = [0, 0, 0, 0, 10, 4, 6, 1, 0, 6, 0, 1, 0, 0\n0, 0, 0]\nclass = 4", fillcolor="#e1fadb"] ;
84 -> 85 ;
86 [label="3 <= 0.5\nentropy = 2.06\nsamples = 14\nvalue = [0, 0, 0, 0, 10, 1, 6, 1, 0, 4, 0, 1, 0, 0\n0, 0, 0]\nclass = 4", fillcolor="#d8f9d0"] ;
85 -> 86 ;
87 [label="15 <= 0.5\nentropy = 1.99\nsamples = 10\nvalue = [0, 0, 0, 0, 3, 1, 6, 0, 0, 2, 0, 1, 0, 0\n0, 0, 0]\nclass = 6", fillcolor="#c4f7df"] ;
86 -> 87 ;
88 [label="12 <= 0.5\nentropy = 1.0\nsamples = 3\nvalue = [0, 0, 0, 0, 0, 0, 2, 0, 0, 2, 0, 0, 0, 0\n0, 0, 0]\nclass = 6", fillcolor="#ffffff"] ;
87 -> 88 ;
89 [label="Fedu <= 3.5\nentropy = 0.92\nsamples = 2\nvalue = [0, 0, 0, 0, 0, 0, 2, 0, 0, 1, 0, 0, 0, 0\n0, 0, 0]\nclass = 6", fillcolor="#9cf2ca"] ;
88 -> 89 ;
90 [label="entropy = 0.0\nsamples = 1\nvalue = [0, 0, 0, 0, 0, 0, 2, 0, 0, 0, 0, 0, 0, 0\n0, 0, 0]\nclass = 6", fillcolor="#39e595"] ;
89 -> 90 ;
91 [label="entropy = 0.0\nsamples = 1\nvalue = [0, 0, 0, 0, 0, 0, 0, 0, 0, 1, 0, 0, 0, 0\n0, 0, 0]\nclass = 9", fillcolor="#3981e5"] ;
89 -> 91 ;
92 [label="entropy = 0.0\nsamples = 1\nvalue = [0, 0, 0, 0, 0, 0, 0, 0, 0, 1, 0, 0, 0, 0\n0, 0, 0]\nclass = 9", fillcolor="#3981e5"] ;
88 -> 92 ;
93 [label="health <= 3.5\nentropy = 1.75\nsamples = 7\nvalue = [0, 0, 0, 0, 3, 1, 4, 0, 0, 0, 0, 1, 0, 0\n0, 0, 0]\nclass = 6", fillcolor="#defbed"] ;
87 -> 93 ;
94 [label="2 <= 0.5\nentropy = 0.99\nsamples = 5\nvalue = [0, 0, 0, 0, 3, 0, 4, 0, 0, 0, 0, 0, 0, 0\n0, 0, 0]\nclass = 6", fillcolor="#cef8e4"] ;
93 -> 94 ;
95 [label="activities <= 0.5\nentropy = 0.92\nsamples = 4\nvalue = [0, 0, 0, 0, 2, 0, 4, 0, 0, 0, 0, 0, 0, 0\n0, 0, 0]\nclass = 6", fillcolor="#9cf2ca"] ;
94 -> 95 ;
96 [label="entropy = 0.0\nsamples = 1\nvalue = [0, 0, 0, 0, 2, 0, 0, 0, 0, 0, 0, 0, 0, 0\n0, 0, 0]\nclass = 4", fillcolor="#58e539"] ;
95 -> 96 ;
97 [label="entropy = 0.0\nsamples = 3\nvalue = [0, 0, 0, 0, 0, 0, 4, 0, 0, 0, 0, 0, 0, 0\n0, 0, 0]\nclass = 6", fillcolor="#39e595"] ;
95 -> 97 ;
98 [label="entropy = 0.0\nsamples = 1\nvalue = [0, 0, 0, 0, 1, 0, 0, 0, 0, 0, 0, 0, 0, 0\n0, 0, 0]\nclass = 4", fillcolor="#58e539"] ;
94 -> 98 ;
99 [label="0 <= 0.5\nentropy = 1.0\nsamples = 2\nvalue = [0, 0, 0, 0, 0, 1, 0, 0, 0, 0, 0, 1, 0, 0\n0, 0, 0]\nclass = 5", fillcolor="#ffffff"] ;
93 -> 99 ;
100 [label="entropy = 0.0\nsamples = 1\nvalue = [0, 0, 0, 0, 0, 0, 0, 0, 0, 0, 0, 1, 0, 0\n0, 0, 0]\nclass = 11", fillcolor="#6a39e5"] ;
99 -> 100 ;
101 [label="entropy = 0.0\nsamples = 1\nvalue = [0, 0, 0, 0, 0, 1, 0, 0, 0, 0, 0, 0, 0, 0\n0, 0, 0]\nclass = 5", fillcolor="#39e556"] ;
99 -> 101 ;
102 [label="Dalc <= 0.5\nentropy = 1.16\nsamples = 4\nvalue = [0, 0, 0, 0, 7, 0, 0, 1, 0, 2, 0, 0, 0, 0\n0, 0, 0]\nclass = 4", fillcolor="#97ef83"] ;
86 -> 102 ;
103 [label="entropy = 0.0\nsamples = 2\nvalue = [0, 0, 0, 0, 7, 0, 0, 0, 0, 0, 0, 0, 0, 0\n0, 0, 0]\nclass = 4", fillcolor="#58e539"] ;
102 -> 103 ;
104 [label="goout <= 1.5\nentropy = 0.92\nsamples = 2\nvalue = [0, 0, 0, 0, 0, 0, 0, 1, 0, 2, 0, 0, 0, 0\n0, 0, 0]\nclass = 9", fillcolor="#9cc0f2"] ;
102 -> 104 ;
105 [label="entropy = 0.0\nsamples = 1\nvalue = [0, 0, 0, 0, 0, 0, 0, 1, 0, 0, 0, 0, 0, 0\n0, 0, 0]\nclass = 7", fillcolor="#39e5d1"] ;
104 -> 105 ;
106 [label="entropy = 0.0\nsamples = 1\nvalue = [0, 0, 0, 0, 0, 0, 0, 0, 0, 2, 0, 0, 0, 0\n0, 0, 0]\nclass = 9", fillcolor="#3981e5"] ;
104 -> 106 ;
107 [label="address <= 0.5\nentropy = 0.97\nsamples = 2\nvalue = [0, 0, 0, 0, 0, 3, 0, 0, 0, 2, 0, 0, 0, 0\n0, 0, 0]\nclass = 5", fillcolor="#bdf6c7"] ;
85 -> 107 ;
108 [label="entropy = 0.0\nsamples = 1\nvalue = [0, 0, 0, 0, 0, 0, 0, 0, 0, 2, 0, 0, 0, 0\n0, 0, 0]\nclass = 9", fillcolor="#3981e5"] ;
107 -> 108 ;
109 [label="entropy = 0.0\nsamples = 1\nvalue = [0, 0, 0, 0, 0, 3, 0, 0, 0, 0, 0, 0, 0, 0\n0, 0, 0]\nclass = 5", fillcolor="#39e556"] ;
107 -> 109 ;
110 [label="Medu <= 3.5\nentropy = 2.64\nsamples = 16\nvalue = [3, 0, 1, 1, 5, 0, 7, 2, 1, 0, 0, 2, 0, 0\n0, 0, 0]\nclass = 6", fillcolor="#e8fcf3"] ;
84 -> 110 ;
111 [label="nursery <= 0.5\nentropy = 2.44\nsamples = 14\nvalue = [3, 0, 1, 1, 3, 0, 7, 2, 1, 0, 0, 0, 0, 0\n0, 0, 0]\nclass = 6", fillcolor="#caf8e3"] ;
110 -> 111 ;
112 [label="2 <= 0.5\nentropy = 0.92\nsamples = 3\nvalue = [1, 0, 0, 0, 0, 0, 0, 2, 0, 0, 0, 0, 0, 0\n0, 0, 0]\nclass = 7", fillcolor="#9cf2e8"] ;
111 -> 112 ;
113 [label="entropy = 0.0\nsamples = 1\nvalue = [0, 0, 0, 0, 0, 0, 0, 1, 0, 0, 0, 0, 0, 0\n0, 0, 0]\nclass = 7", fillcolor="#39e5d1"] ;
112 -> 113 ;
114 [label="Medu <= 1.5\nentropy = 1.0\nsamples = 2\nvalue = [1, 0, 0, 0, 0, 0, 0, 1, 0, 0, 0, 0, 0, 0\n0, 0, 0]\nclass = 0", fillcolor="#ffffff"] ;
112 -> 114 ;
115 [label="entropy = 0.0\nsamples = 1\nvalue = [0, 0, 0, 0, 0, 0, 0, 1, 0, 0, 0, 0, 0, 0\n0, 0, 0]\nclass = 7", fillcolor="#39e5d1"] ;
114 -> 115 ;
116 [label="entropy = 0.0\nsamples = 1\nvalue = [1, 0, 0, 0, 0, 0, 0, 0, 0, 0, 0, 0, 0, 0\n0, 0, 0]\nclass = 0", fillcolor="#e58139"] ;
114 -> 116 ;
117 [label="Walc <= 2.5\nentropy = 2.15\nsamples = 11\nvalue = [2, 0, 1, 1, 3, 0, 7, 0, 1, 0, 0, 0, 0, 0\n0, 0, 0]\nclass = 6", fillcolor="#bdf6dc"] ;
111 -> 117 ;
118 [label="Walc <= 1.5\nentropy = 2.03\nsamples = 10\nvalue = [2, 0, 1, 1, 1, 0, 7, 0, 1, 0, 0, 0, 0, 0\n0, 0, 0]\nclass = 6", fillcolor="#a5f3cf"] ;
117 -> 118 ;
119 [label="freetime <= 2.5\nentropy = 1.66\nsamples = 6\nvalue = [0, 0, 1, 1, 1, 0, 4, 0, 0, 0, 0, 0, 0, 0\n0, 0, 0]\nclass = 6", fillcolor="#9cf2ca"] ;
118 -> 119 ;
120 [label="10 <= 0.5\nentropy = 1.25\nsamples = 5\nvalue = [0, 0, 1, 1, 0, 0, 4, 0, 0, 0, 0, 0, 0, 0\n0, 0, 0]\nclass = 6", fillcolor="#88efbf"] ;
119 -> 120 ;
121 [label="entropy = 0.0\nsamples = 2\nvalue = [0, 0, 0, 0, 0, 0, 3, 0, 0, 0, 0, 0, 0, 0\n0, 0, 0]\nclass = 6", fillcolor="#39e595"] ;
120 -> 121 ;
122 [label="goout <= 3.0\nentropy = 1.58\nsamples = 3\nvalue = [0, 0, 1, 1, 0, 0, 1, 0, 0, 0, 0, 0, 0, 0\n0, 0, 0]\nclass = 2", fillcolor="#ffffff"] ;
120 -> 122 ;
123 [label="Pstatus <= 0.5\nentropy = 1.0\nsamples = 2\nvalue = [0, 0, 1, 1, 0, 0, 0, 0, 0, 0, 0, 0, 0, 0\n0, 0, 0]\nclass = 2", fillcolor="#ffffff"] ;
122 -> 123 ;
124 [label="entropy = 0.0\nsamples = 1\nvalue = [0, 0, 0, 1, 0, 0, 0, 0, 0, 0, 0, 0, 0, 0\n0, 0, 0]\nclass = 3", fillcolor="#95e539"] ;
123 -> 124 ;
125 [label="entropy = 0.0\nsamples = 1\nvalue = [0, 0, 1, 0, 0, 0, 0, 0, 0, 0, 0, 0, 0, 0\n0, 0, 0]\nclass = 2", fillcolor="#d1e539"] ;
123 -> 125 ;
126 [label="entropy = 0.0\nsamples = 1\nvalue = [0, 0, 0, 0, 0, 0, 1, 0, 0, 0, 0, 0, 0, 0\n0, 0, 0]\nclass = 6", fillcolor="#39e595"] ;
122 -> 126 ;
127 [label="entropy = 0.0\nsamples = 1\nvalue = [0, 0, 0, 0, 1, 0, 0, 0, 0, 0, 0, 0, 0, 0\n0, 0, 0]\nclass = 4", fillcolor="#58e539"] ;
119 -> 127 ;
128 [label="romantic <= 0.5\nentropy = 1.46\nsamples = 4\nvalue = [2, 0, 0, 0, 0, 0, 3, 0, 1, 0, 0, 0, 0, 0\n0, 0, 0]\nclass = 6", fillcolor="#cef8e4"] ;
118 -> 128 ;
129 [label="entropy = 0.0\nsamples = 2\nvalue = [0, 0, 0, 0, 0, 0, 3, 0, 0, 0, 0, 0, 0, 0\n0, 0, 0]\nclass = 6", fillcolor="#39e595"] ;
128 -> 129 ;
130 [label="traveltime <= 0.5\nentropy = 0.92\nsamples = 2\nvalue = [2, 0, 0, 0, 0, 0, 0, 0, 1, 0, 0, 0, 0, 0\n0, 0, 0]\nclass = 0", fillcolor="#f2c09c"] ;
128 -> 130 ;
131 [label="entropy = 0.0\nsamples = 1\nvalue = [2, 0, 0, 0, 0, 0, 0, 0, 0, 0, 0, 0, 0, 0\n0, 0, 0]\nclass = 0", fillcolor="#e58139"] ;
130 -> 131 ;
132 [label="entropy = 0.0\nsamples = 1\nvalue = [0, 0, 0, 0, 0, 0, 0, 0, 1, 0, 0, 0, 0, 0\n0, 0, 0]\nclass = 8", fillcolor="#39bde5"] ;
130 -> 132 ;
133 [label="entropy = 0.0\nsamples = 1\nvalue = [0, 0, 0, 0, 2, 0, 0, 0, 0, 0, 0, 0, 0, 0\n0, 0, 0]\nclass = 4", fillcolor="#58e539"] ;
117 -> 133 ;
134 [label="2 <= 0.5\nentropy = 1.0\nsamples = 2\nvalue = [0, 0, 0, 0, 2, 0, 0, 0, 0, 0, 0, 2, 0, 0\n0, 0, 0]\nclass = 4", fillcolor="#ffffff"] ;
110 -> 134 ;
135 [label="entropy = 0.0\nsamples = 1\nvalue = [0, 0, 0, 0, 0, 0, 0, 0, 0, 0, 0, 2, 0, 0\n0, 0, 0]\nclass = 11", fillcolor="#6a39e5"] ;
134 -> 135 ;
136 [label="entropy = 0.0\nsamples = 1\nvalue = [0, 0, 0, 0, 2, 0, 0, 0, 0, 0, 0, 0, 0, 0\n0, 0, 0]\nclass = 4", fillcolor="#58e539"] ;
134 -> 136 ;
137 [label="absences <= 6.5\nentropy = 3.32\nsamples = 26\nvalue = [3, 0, 2, 3, 2, 4, 5, 6, 4, 1, 10, 5, 0, 0\n1, 0, 0]\nclass = 10", fillcolor="#ebecfc"] ;
83 -> 137 ;
138 [label="famsize <= 0.5\nentropy = 2.87\nsamples = 18\nvalue = [3, 0, 0, 3, 1, 4, 3, 3, 0, 0, 10, 5, 0, 0\n1, 0, 0]\nclass = 10", fillcolor="#dcdefa"] ;
137 -> 138 ;
139 [label="studytime <= 1.5\nentropy = 2.63\nsamples = 16\nvalue = [3, 0, 0, 3, 1, 0, 2, 3, 0, 0, 10, 5, 0, 0\n1, 0, 0]\nclass = 10", fillcolor="#d4d6f9"] ;
138 -> 139 ;
140 [label="goout <= 1.5\nentropy = 2.48\nsamples = 8\nvalue = [3, 0, 0, 0, 1, 0, 2, 2, 0, 0, 1, 2, 0, 0\n0, 0, 0]\nclass = 0", fillcolor="#fcf1e9"] ;
139 -> 140 ;
141 [label="Fedu <= 2.0\nentropy = 1.52\nsamples = 3\nvalue = [2, 0, 0, 0, 0, 0, 0, 0, 0, 0, 1, 2, 0, 0\n0, 0, 0]\nclass = 0", fillcolor="#ffffff"] ;
140 -> 141 ;
142 [label="entropy = 0.0\nsamples = 1\nvalue = [2, 0, 0, 0, 0, 0, 0, 0, 0, 0, 0, 0, 0, 0\n0, 0, 0]\nclass = 0", fillcolor="#e58139"] ;
141 -> 142 ;
143 [label="6 <= 0.5\nentropy = 0.92\nsamples = 2\nvalue = [0, 0, 0, 0, 0, 0, 0, 0, 0, 0, 1, 2, 0, 0\n0, 0, 0]\nclass = 11", fillcolor="#b49cf2"] ;
141 -> 143 ;
144 [label="entropy = 0.0\nsamples = 1\nvalue = [0, 0, 0, 0, 0, 0, 0, 0, 0, 0, 0, 2, 0, 0\n0, 0, 0]\nclass = 11", fillcolor="#6a39e5"] ;
143 -> 144 ;
145 [label="entropy = 0.0\nsamples = 1\nvalue = [0, 0, 0, 0, 0, 0, 0, 0, 0, 0, 1, 0, 0, 0\n0, 0, 0]\nclass = 10", fillcolor="#3944e5"] ;
143 -> 145 ;
146 [label="Walc <= 2.5\nentropy = 1.92\nsamples = 5\nvalue = [1, 0, 0, 0, 1, 0, 2, 2, 0, 0, 0, 0, 0, 0\n0, 0, 0]\nclass = 6", fillcolor="#ffffff"] ;
140 -> 146 ;
147 [label="1 <= 0.5\nentropy = 1.5\nsamples = 4\nvalue = [1, 0, 0, 0, 1, 0, 2, 0, 0, 0, 0, 0, 0, 0\n0, 0, 0]\nclass = 6", fillcolor="#bdf6dc"] ;
146 -> 147 ;
148 [label="14 <= 0.5\nentropy = 0.92\nsamples = 3\nvalue = [0, 0, 0, 0, 1, 0, 2, 0, 0, 0, 0, 0, 0, 0\n0, 0, 0]\nclass = 6", fillcolor="#9cf2ca"] ;
147 -> 148 ;
149 [label="entropy = 0.0\nsamples = 2\nvalue = [0, 0, 0, 0, 0, 0, 2, 0, 0, 0, 0, 0, 0, 0\n0, 0, 0]\nclass = 6", fillcolor="#39e595"] ;
148 -> 149 ;
150 [label="entropy = 0.0\nsamples = 1\nvalue = [0, 0, 0, 0, 1, 0, 0, 0, 0, 0, 0, 0, 0, 0\n0, 0, 0]\nclass = 4", fillcolor="#58e539"] ;
148 -> 150 ;
151 [label="entropy = 0.0\nsamples = 1\nvalue = [1, 0, 0, 0, 0, 0, 0, 0, 0, 0, 0, 0, 0, 0\n0, 0, 0]\nclass = 0", fillcolor="#e58139"] ;
147 -> 151 ;
152 [label="entropy = 0.0\nsamples = 1\nvalue = [0, 0, 0, 0, 0, 0, 0, 2, 0, 0, 0, 0, 0, 0\n0, 0, 0]\nclass = 7", fillcolor="#39e5d1"] ;
146 -> 152 ;
153 [label="4 <= 0.5\nentropy = 1.85\nsamples = 8\nvalue = [0, 0, 0, 3, 0, 0, 0, 1, 0, 0, 9, 3, 0, 0\n1, 0, 0]\nclass = 10", fillcolor="#aaaff4"] ;
139 -> 153 ;
154 [label="freetime <= 2.5\nentropy = 1.43\nsamples = 7\nvalue = [0, 0, 0, 0, 0, 0, 0, 1, 0, 0, 9, 3, 0, 0\n1, 0, 0]\nclass = 10", fillcolor="#9399f1"] ;
153 -> 154 ;
155 [label="14 <= 0.5\nentropy = 0.92\nsamples = 5\nvalue = [0, 0, 0, 0, 0, 0, 0, 1, 0, 0, 8, 0, 0, 0\n1, 0, 0]\nclass = 10", fillcolor="#656eeb"] ;
154 -> 155 ;
156 [label="famrel <= 3.5\nentropy = 0.65\nsamples = 3\nvalue = [0, 0, 0, 0, 0, 0, 0, 1, 0, 0, 5, 0, 0, 0\n0, 0, 0]\nclass = 10", fillcolor="#6169ea"] ;
155 -> 156 ;
157 [label="entropy = 0.0\nsamples = 2\nvalue = [0, 0, 0, 0, 0, 0, 0, 0, 0, 0, 5, 0, 0, 0\n0, 0, 0]\nclass = 10", fillcolor="#3944e5"] ;
156 -> 157 ;
158 [label="entropy = 0.0\nsamples = 1\nvalue = [0, 0, 0, 0, 0, 0, 0, 1, 0, 0, 0, 0, 0, 0\n0, 0, 0]\nclass = 7", fillcolor="#39e5d1"] ;
156 -> 158 ;
159 [label="activities <= 0.5\nentropy = 0.81\nsamples = 2\nvalue = [0, 0, 0, 0, 0, 0, 0, 0, 0, 0, 3, 0, 0, 0\n1, 0, 0]\nclass = 10", fillcolor="#7b82ee"] ;
155 -> 159 ;
160 [label="entropy = 0.0\nsamples = 1\nvalue = [0, 0, 0, 0, 0, 0, 0, 0, 0, 0, 3, 0, 0, 0\n0, 0, 0]\nclass = 10", fillcolor="#3944e5"] ;
159 -> 160 ;
161 [label="entropy = 0.0\nsamples = 1\nvalue = [0, 0, 0, 0, 0, 0, 0, 0, 0, 0, 0, 0, 0, 0\n1, 0, 0]\nclass = 14", fillcolor="#e539a9"] ;
159 -> 161 ;
162 [label="health <= 2.0\nentropy = 0.81\nsamples = 2\nvalue = [0, 0, 0, 0, 0, 0, 0, 0, 0, 0, 1, 3, 0, 0\n0, 0, 0]\nclass = 11", fillcolor="#9c7bee"] ;
154 -> 162 ;
163 [label="entropy = 0.0\nsamples = 1\nvalue = [0, 0, 0, 0, 0, 0, 0, 0, 0, 0, 1, 0, 0, 0\n0, 0, 0]\nclass = 10", fillcolor="#3944e5"] ;
162 -> 163 ;
164 [label="entropy = 0.0\nsamples = 1\nvalue = [0, 0, 0, 0, 0, 0, 0, 0, 0, 0, 0, 3, 0, 0\n0, 0, 0]\nclass = 11", fillcolor="#6a39e5"] ;
162 -> 164 ;
165 [label="entropy = 0.0\nsamples = 1\nvalue = [0, 0, 0, 3, 0, 0, 0, 0, 0, 0, 0, 0, 0, 0\n0, 0, 0]\nclass = 3", fillcolor="#95e539"] ;
153 -> 165 ;
166 [label="health <= 2.5\nentropy = 0.72\nsamples = 2\nvalue = [0, 0, 0, 0, 0, 4, 1, 0, 0, 0, 0, 0, 0, 0\n0, 0, 0]\nclass = 5", fillcolor="#6aec80"] ;
138 -> 166 ;
167 [label="entropy = 0.0\nsamples = 1\nvalue = [0, 0, 0, 0, 0, 0, 1, 0, 0, 0, 0, 0, 0, 0\n0, 0, 0]\nclass = 6", fillcolor="#39e595"] ;
166 -> 167 ;
168 [label="entropy = 0.0\nsamples = 1\nvalue = [0, 0, 0, 0, 0, 4, 0, 0, 0, 0, 0, 0, 0, 0\n0, 0, 0]\nclass = 5", fillcolor="#39e556"] ;
166 -> 168 ;
169 [label="studytime <= 0.5\nentropy = 2.41\nsamples = 8\nvalue = [0, 0, 2, 0, 1, 0, 2, 3, 4, 1, 0, 0, 0, 0\n0, 0, 0]\nclass = 8", fillcolor="#ebf8fc"] ;
137 -> 169 ;
170 [label="internet <= 0.5\nentropy = 0.92\nsamples = 2\nvalue = [0, 0, 2, 0, 0, 0, 0, 0, 0, 1, 0, 0, 0, 0\n0, 0, 0]\nclass = 2", fillcolor="#e8f29c"] ;
169 -> 170 ;
171 [label="entropy = 0.0\nsamples = 1\nvalue = [0, 0, 0, 0, 0, 0, 0, 0, 0, 1, 0, 0, 0, 0\n0, 0, 0]\nclass = 9", fillcolor="#3981e5"] ;
170 -> 171 ;
172 [label="entropy = 0.0\nsamples = 1\nvalue = [0, 0, 2, 0, 0, 0, 0, 0, 0, 0, 0, 0, 0, 0\n0, 0, 0]\nclass = 2", fillcolor="#d1e539"] ;
170 -> 172 ;
173 [label="2 <= 0.5\nentropy = 1.85\nsamples = 6\nvalue = [0, 0, 0, 0, 1, 0, 2, 3, 4, 0, 0, 0, 0, 0\n0, 0, 0]\nclass = 8", fillcolor="#e3f6fb"] ;
169 -> 173 ;
174 [label="freetime <= 2.5\nentropy = 1.46\nsamples = 4\nvalue = [0, 0, 0, 0, 0, 0, 2, 3, 1, 0, 0, 0, 0, 0\n0, 0, 0]\nclass = 7", fillcolor="#cef8f4"] ;
173 -> 174 ;
175 [label="goout <= 0.5\nentropy = 0.97\nsamples = 3\nvalue = [0, 0, 0, 0, 0, 0, 2, 3, 0, 0, 0, 0, 0, 0\n0, 0, 0]\nclass = 7", fillcolor="#bdf6f0"] ;
174 -> 175 ;
176 [label="entropy = 0.0\nsamples = 1\nvalue = [0, 0, 0, 0, 0, 0, 2, 0, 0, 0, 0, 0, 0, 0\n0, 0, 0]\nclass = 6", fillcolor="#39e595"] ;
175 -> 176 ;
177 [label="entropy = 0.0\nsamples = 2\nvalue = [0, 0, 0, 0, 0, 0, 0, 3, 0, 0, 0, 0, 0, 0\n0, 0, 0]\nclass = 7", fillcolor="#39e5d1"] ;
175 -> 177 ;
178 [label="entropy = 0.0\nsamples = 1\nvalue = [0, 0, 0, 0, 0, 0, 0, 0, 1, 0, 0, 0, 0, 0\n0, 0, 0]\nclass = 8", fillcolor="#39bde5"] ;
174 -> 178 ;
179 [label="health <= 1.0\nentropy = 0.81\nsamples = 2\nvalue = [0, 0, 0, 0, 1, 0, 0, 0, 3, 0, 0, 0, 0, 0\n0, 0, 0]\nclass = 8", fillcolor="#7bd3ee"] ;
173 -> 179 ;
180 [label="entropy = 0.0\nsamples = 1\nvalue = [0, 0, 0, 0, 0, 0, 0, 0, 3, 0, 0, 0, 0, 0\n0, 0, 0]\nclass = 8", fillcolor="#39bde5"] ;
179 -> 180 ;
181 [label="entropy = 0.0\nsamples = 1\nvalue = [0, 0, 0, 0, 1, 0, 0, 0, 0, 0, 0, 0, 0, 0\n0, 0, 0]\nclass = 4", fillcolor="#58e539"] ;
179 -> 181 ;
182 [label="Walc <= 1.5\nentropy = 3.62\nsamples = 92\nvalue = [12, 4, 1, 3, 14, 10, 25, 18, 12, 11, 4, 11, 7\n2, 9, 1, 0]\nclass = 6", fillcolor="#f4fef9"] ;
0 -> 182 [labeldistance=2.5, labelangle=-45, headlabel="False"] ;
183 [label="paid <= 0.5\nentropy = 3.48\nsamples = 46\nvalue = [6, 0, 0, 0, 4, 5, 9, 12, 4, 3, 4, 10, 7, 2\n7, 1, 0]\nclass = 7", fillcolor="#f9fefe"] ;
182 -> 183 ;
184 [label="10 <= 0.5\nentropy = 3.2\nsamples = 28\nvalue = [6, 0, 0, 0, 0, 5, 5, 4, 4, 2, 2, 0, 7, 2\n6, 0, 0]\nclass = 12", fillcolor="#fdfafe"] ;
183 -> 184 ;
185 [label="famsize <= 0.5\nentropy = 3.05\nsamples = 17\nvalue = [5, 0, 0, 0, 0, 5, 4, 2, 0, 2, 2, 0, 3, 2\n2, 0, 0]\nclass = 0", fillcolor="#ffffff"] ;
184 -> 185 ;
186 [label="2 <= 0.5\nentropy = 2.66\nsamples = 11\nvalue = [5, 0, 0, 0, 0, 2, 3, 0, 0, 2, 1, 0, 3, 2\n0, 0, 0]\nclass = 0", fillcolor="#fceee5"] ;
185 -> 186 ;
187 [label="absences <= 2.0\nentropy = 1.76\nsamples = 6\nvalue = [5, 0, 0, 0, 0, 2, 0, 0, 0, 0, 0, 0, 1, 2\n0, 0, 0]\nclass = 0", fillcolor="#f5d0b5"] ;
186 -> 187 ;
188 [label="Walc <= 0.5\nentropy = 0.86\nsamples = 4\nvalue = [5, 0, 0, 0, 0, 0, 0, 0, 0, 0, 0, 0, 0, 2\n0, 0, 0]\nclass = 0", fillcolor="#efb388"] ;
187 -> 188 ;
189 [label="entropy = 0.0\nsamples = 2\nvalue = [0, 0, 0, 0, 0, 0, 0, 0, 0, 0, 0, 0, 0, 2\n0, 0, 0]\nclass = 13", fillcolor="#e539e5"] ;
188 -> 189 ;
190 [label="entropy = 0.0\nsamples = 2\nvalue = [5, 0, 0, 0, 0, 0, 0, 0, 0, 0, 0, 0, 0, 0\n0, 0, 0]\nclass = 0", fillcolor="#e58139"] ;
188 -> 190 ;
191 [label="activities <= 0.5\nentropy = 0.92\nsamples = 2\nvalue = [0, 0, 0, 0, 0, 2, 0, 0, 0, 0, 0, 0, 1, 0\n0, 0, 0]\nclass = 5", fillcolor="#9cf2aa"] ;
187 -> 191 ;
192 [label="entropy = 0.0\nsamples = 1\nvalue = [0, 0, 0, 0, 0, 0, 0, 0, 0, 0, 0, 0, 1, 0\n0, 0, 0]\nclass = 12", fillcolor="#a939e5"] ;
191 -> 192 ;
193 [label="entropy = 0.0\nsamples = 1\nvalue = [0, 0, 0, 0, 0, 2, 0, 0, 0, 0, 0, 0, 0, 0\n0, 0, 0]\nclass = 5", fillcolor="#39e556"] ;
191 -> 193 ;
194 [label="romantic <= 0.5\nentropy = 1.91\nsamples = 5\nvalue = [0, 0, 0, 0, 0, 0, 3, 0, 0, 2, 1, 0, 2, 0\n0, 0, 0]\nclass = 6", fillcolor="#defbed"] ;
186 -> 194 ;
195 [label="9 <= 0.5\nentropy = 1.46\nsamples = 4\nvalue = [0, 0, 0, 0, 0, 0, 3, 0, 0, 2, 1, 0, 0, 0\n0, 0, 0]\nclass = 6", fillcolor="#cef8e4"] ;
194 -> 195 ;
196 [label="age <= 1.5\nentropy = 0.97\nsamples = 3\nvalue = [0, 0, 0, 0, 0, 0, 3, 0, 0, 2, 0, 0, 0, 0\n0, 0, 0]\nclass = 6", fillcolor="#bdf6dc"] ;
195 -> 196 ;
197 [label="entropy = 0.0\nsamples = 2\nvalue = [0, 0, 0, 0, 0, 0, 0, 0, 0, 2, 0, 0, 0, 0\n0, 0, 0]\nclass = 9", fillcolor="#3981e5"] ;
196 -> 197 ;
198 [label="entropy = 0.0\nsamples = 1\nvalue = [0, 0, 0, 0, 0, 0, 3, 0, 0, 0, 0, 0, 0, 0\n0, 0, 0]\nclass = 6", fillcolor="#39e595"] ;
196 -> 198 ;
199 [label="entropy = 0.0\nsamples = 1\nvalue = [0, 0, 0, 0, 0, 0, 0, 0, 0, 0, 1, 0, 0, 0\n0, 0, 0]\nclass = 10", fillcolor="#3944e5"] ;
195 -> 199 ;
200 [label="entropy = 0.0\nsamples = 1\nvalue = [0, 0, 0, 0, 0, 0, 0, 0, 0, 0, 0, 0, 2, 0\n0, 0, 0]\nclass = 12", fillcolor="#a939e5"] ;
194 -> 200 ;
201 [label="Medu <= 2.5\nentropy = 2.2\nsamples = 6\nvalue = [0, 0, 0, 0, 0, 3, 1, 2, 0, 0, 1, 0, 0, 0\n2, 0, 0]\nclass = 5", fillcolor="#e3fbe7"] ;
185 -> 201 ;
202 [label="6 <= 0.5\nentropy = 1.37\nsamples = 4\nvalue = [0, 0, 0, 0, 0, 3, 1, 0, 0, 0, 1, 0, 0, 0\n0, 0, 0]\nclass = 5", fillcolor="#9cf2aa"] ;
201 -> 202 ;
203 [label="Fedu <= 1.5\nentropy = 0.81\nsamples = 3\nvalue = [0, 0, 0, 0, 0, 3, 1, 0, 0, 0, 0, 0, 0, 0\n0, 0, 0]\nclass = 5", fillcolor="#7bee8e"] ;
202 -> 203 ;
204 [label="entropy = 0.0\nsamples = 1\nvalue = [0, 0, 0, 0, 0, 0, 1, 0, 0, 0, 0, 0, 0, 0\n0, 0, 0]\nclass = 6", fillcolor="#39e595"] ;
203 -> 204 ;
205 [label="entropy = 0.0\nsamples = 2\nvalue = [0, 0, 0, 0, 0, 3, 0, 0, 0, 0, 0, 0, 0, 0\n0, 0, 0]\nclass = 5", fillcolor="#39e556"] ;
203 -> 205 ;
206 [label="entropy = 0.0\nsamples = 1\nvalue = [0, 0, 0, 0, 0, 0, 0, 0, 0, 0, 1, 0, 0, 0\n0, 0, 0]\nclass = 10", fillcolor="#3944e5"] ;
202 -> 206 ;
207 [label="freetime <= 2.5\nentropy = 1.0\nsamples = 2\nvalue = [0, 0, 0, 0, 0, 0, 0, 2, 0, 0, 0, 0, 0, 0\n2, 0, 0]\nclass = 7", fillcolor="#ffffff"] ;
201 -> 207 ;
208 [label="entropy = 0.0\nsamples = 1\nvalue = [0, 0, 0, 0, 0, 0, 0, 2, 0, 0, 0, 0, 0, 0\n0, 0, 0]\nclass = 7", fillcolor="#39e5d1"] ;
207 -> 208 ;
209 [label="entropy = 0.0\nsamples = 1\nvalue = [0, 0, 0, 0, 0, 0, 0, 0, 0, 0, 0, 0, 0, 0\n2, 0, 0]\nclass = 14", fillcolor="#e539a9"] ;
207 -> 209 ;
210 [label="studytime <= 0.5\nentropy = 2.38\nsamples = 11\nvalue = [1, 0, 0, 0, 0, 0, 1, 2, 4, 0, 0, 0, 4, 0\n4, 0, 0]\nclass = 8", fillcolor="#ffffff"] ;
184 -> 210 ;
211 [label="2 <= 0.5\nentropy = 1.84\nsamples = 5\nvalue = [1, 0, 0, 0, 0, 0, 0, 1, 3, 0, 0, 0, 0, 0\n2, 0, 0]\nclass = 8", fillcolor="#d7f2fa"] ;
210 -> 211 ;
212 [label="address <= 0.5\nentropy = 1.37\nsamples = 4\nvalue = [1, 0, 0, 0, 0, 0, 0, 1, 3, 0, 0, 0, 0, 0\n0, 0, 0]\nclass = 8", fillcolor="#9cdef2"] ;
211 -> 212 ;
213 [label="entropy = 0.0\nsamples = 1\nvalue = [1, 0, 0, 0, 0, 0, 0, 0, 0, 0, 0, 0, 0, 0\n0, 0, 0]\nclass = 0", fillcolor="#e58139"] ;
212 -> 213 ;
214 [label="14 <= 0.5\nentropy = 0.81\nsamples = 3\nvalue = [0, 0, 0, 0, 0, 0, 0, 1, 3, 0, 0, 0, 0, 0\n0, 0, 0]\nclass = 8", fillcolor="#7bd3ee"] ;
212 -> 214 ;
215 [label="entropy = 0.0\nsamples = 2\nvalue = [0, 0, 0, 0, 0, 0, 0, 0, 3, 0, 0, 0, 0, 0\n0, 0, 0]\nclass = 8", fillcolor="#39bde5"] ;
214 -> 215 ;
216 [label="entropy = 0.0\nsamples = 1\nvalue = [0, 0, 0, 0, 0, 0, 0, 1, 0, 0, 0, 0, 0, 0\n0, 0, 0]\nclass = 7", fillcolor="#39e5d1"] ;
214 -> 216 ;
217 [label="entropy = 0.0\nsamples = 1\nvalue = [0, 0, 0, 0, 0, 0, 0, 0, 0, 0, 0, 0, 0, 0\n2, 0, 0]\nclass = 14", fillcolor="#e539a9"] ;
211 -> 217 ;
218 [label="2 <= 0.5\nentropy = 2.06\nsamples = 6\nvalue = [0, 0, 0, 0, 0, 0, 1, 1, 1, 0, 0, 0, 4, 0\n2, 0, 0]\nclass = 12", fillcolor="#e6c6f8"] ;
210 -> 218 ;
219 [label="absences <= 5.5\nentropy = 0.92\nsamples = 3\nvalue = [0, 0, 0, 0, 0, 0, 0, 0, 0, 0, 0, 0, 4, 0\n2, 0, 0]\nclass = 12", fillcolor="#d49cf2"] ;
218 -> 219 ;
220 [label="goout <= 2.5\nentropy = 1.0\nsamples = 2\nvalue = [0, 0, 0, 0, 0, 0, 0, 0, 0, 0, 0, 0, 2, 0\n2, 0, 0]\nclass = 12", fillcolor="#ffffff"] ;
219 -> 220 ;
221 [label="entropy = 0.0\nsamples = 1\nvalue = [0, 0, 0, 0, 0, 0, 0, 0, 0, 0, 0, 0, 0, 0\n2, 0, 0]\nclass = 14", fillcolor="#e539a9"] ;
220 -> 221 ;
222 [label="entropy = 0.0\nsamples = 1\nvalue = [0, 0, 0, 0, 0, 0, 0, 0, 0, 0, 0, 0, 2, 0\n0, 0, 0]\nclass = 12", fillcolor="#a939e5"] ;
220 -> 222 ;
223 [label="entropy = 0.0\nsamples = 1\nvalue = [0, 0, 0, 0, 0, 0, 0, 0, 0, 0, 0, 0, 2, 0\n0, 0, 0]\nclass = 12", fillcolor="#a939e5"] ;
219 -> 223 ;
224 [label="health <= 1.5\nentropy = 1.58\nsamples = 3\nvalue = [0, 0, 0, 0, 0, 0, 1, 1, 1, 0, 0, 0, 0, 0\n0, 0, 0]\nclass = 6", fillcolor="#ffffff"] ;
218 -> 224 ;
225 [label="entropy = 0.0\nsamples = 1\nvalue = [0, 0, 0, 0, 0, 0, 0, 1, 0, 0, 0, 0, 0, 0\n0, 0, 0]\nclass = 7", fillcolor="#39e5d1"] ;
224 -> 225 ;
226 [label="studytime <= 2.5\nentropy = 1.0\nsamples = 2\nvalue = [0, 0, 0, 0, 0, 0, 1, 0, 1, 0, 0, 0, 0, 0\n0, 0, 0]\nclass = 6", fillcolor="#ffffff"] ;
224 -> 226 ;
227 [label="entropy = 0.0\nsamples = 1\nvalue = [0, 0, 0, 0, 0, 0, 0, 0, 1, 0, 0, 0, 0, 0\n0, 0, 0]\nclass = 8", fillcolor="#39bde5"] ;
226 -> 227 ;
228 [label="entropy = 0.0\nsamples = 1\nvalue = [0, 0, 0, 0, 0, 0, 1, 0, 0, 0, 0, 0, 0, 0\n0, 0, 0]\nclass = 6", fillcolor="#39e595"] ;
226 -> 228 ;
229 [label="famsup <= 0.5\nentropy = 2.53\nsamples = 18\nvalue = [0, 0, 0, 0, 4, 0, 4, 8, 0, 1, 2, 10, 0, 0\n1, 1, 0]\nclass = 11", fillcolor="#f2eefd"] ;
183 -> 229 ;
230 [label="traveltime <= 0.5\nentropy = 1.84\nsamples = 6\nvalue = [0, 0, 0, 0, 2, 0, 4, 2, 0, 1, 0, 0, 0, 0\n0, 0, 0]\nclass = 6", fillcolor="#c6f8e1"] ;
229 -> 230 ;
231 [label="15 <= 0.5\nentropy = 1.0\nsamples = 2\nvalue = [0, 0, 0, 0, 2, 0, 0, 2, 0, 0, 0, 0, 0, 0\n0, 0, 0]\nclass = 4", fillcolor="#ffffff"] ;
230 -> 231 ;
232 [label="entropy = 0.0\nsamples = 1\nvalue = [0, 0, 0, 0, 0, 0, 0, 2, 0, 0, 0, 0, 0, 0\n0, 0, 0]\nclass = 7", fillcolor="#39e5d1"] ;
231 -> 232 ;
233 [label="entropy = 0.0\nsamples = 1\nvalue = [0, 0, 0, 0, 2, 0, 0, 0, 0, 0, 0, 0, 0, 0\n0, 0, 0]\nclass = 4", fillcolor="#58e539"] ;
231 -> 233 ;
234 [label="12 <= 0.5\nentropy = 0.72\nsamples = 4\nvalue = [0, 0, 0, 0, 0, 0, 4, 0, 0, 1, 0, 0, 0, 0\n0, 0, 0]\nclass = 6", fillcolor="#6aecb0"] ;
230 -> 234 ;
235 [label="entropy = 0.0\nsamples = 3\nvalue = [0, 0, 0, 0, 0, 0, 4, 0, 0, 0, 0, 0, 0, 0\n0, 0, 0]\nclass = 6", fillcolor="#39e595"] ;
234 -> 235 ;
236 [label="entropy = 0.0\nsamples = 1\nvalue = [0, 0, 0, 0, 0, 0, 0, 0, 0, 1, 0, 0, 0, 0\n0, 0, 0]\nclass = 9", fillcolor="#3981e5"] ;
234 -> 236 ;
237 [label="absences <= 1.0\nentropy = 2.06\nsamples = 12\nvalue = [0, 0, 0, 0, 2, 0, 0, 6, 0, 0, 2, 10, 0, 0\n1, 1, 0]\nclass = 11", fillcolor="#dacef8"] ;
229 -> 237 ;
238 [label="freetime <= 1.5\nentropy = 1.06\nsamples = 4\nvalue = [0, 0, 0, 0, 0, 0, 0, 0, 0, 0, 0, 6, 0, 0\n1, 1, 0]\nclass = 11", fillcolor="#9572ec"] ;
237 -> 238 ;
239 [label="entropy = 0.0\nsamples = 1\nvalue = [0, 0, 0, 0, 0, 0, 0, 0, 0, 0, 0, 0, 0, 0\n0, 1, 0]\nclass = 15", fillcolor="#e5396d"] ;
238 -> 239 ;
240 [label="15 <= 0.5\nentropy = 0.59\nsamples = 3\nvalue = [0, 0, 0, 0, 0, 0, 0, 0, 0, 0, 0, 6, 0, 0\n1, 0, 0]\nclass = 11", fillcolor="#835ae9"] ;
238 -> 240 ;
241 [label="entropy = 0.0\nsamples = 1\nvalue = [0, 0, 0, 0, 0, 0, 0, 0, 0, 0, 0, 5, 0, 0\n0, 0, 0]\nclass = 11", fillcolor="#6a39e5"] ;
240 -> 241 ;
242 [label="goout <= 1.5\nentropy = 1.0\nsamples = 2\nvalue = [0, 0, 0, 0, 0, 0, 0, 0, 0, 0, 0, 1, 0, 0\n1, 0, 0]\nclass = 11", fillcolor="#ffffff"] ;
240 -> 242 ;
243 [label="entropy = 0.0\nsamples = 1\nvalue = [0, 0, 0, 0, 0, 0, 0, 0, 0, 0, 0, 1, 0, 0\n0, 0, 0]\nclass = 11", fillcolor="#6a39e5"] ;
242 -> 243 ;
244 [label="entropy = 0.0\nsamples = 1\nvalue = [0, 0, 0, 0, 0, 0, 0, 0, 0, 0, 0, 0, 0, 0\n1, 0, 0]\nclass = 14", fillcolor="#e539a9"] ;
242 -> 244 ;
245 [label="famrel <= 3.5\nentropy = 1.84\nsamples = 8\nvalue = [0, 0, 0, 0, 2, 0, 0, 6, 0, 0, 2, 4, 0, 0\n0, 0, 0]\nclass = 7", fillcolor="#d7faf6"] ;
237 -> 245 ;
246 [label="absences <= 16.5\nentropy = 1.44\nsamples = 6\nvalue = [0, 0, 0, 0, 2, 0, 0, 5, 0, 0, 2, 0, 0, 0\n0, 0, 0]\nclass = 7", fillcolor="#aaf4eb"] ;
245 -> 246 ;
247 [label="4 <= 0.5\nentropy = 1.3\nsamples = 5\nvalue = [0, 0, 0, 0, 1, 0, 0, 5, 0, 0, 2, 0, 0, 0\n0, 0, 0]\nclass = 7", fillcolor="#9cf2e8"] ;
246 -> 247 ;
248 [label="Dalc <= 0.5\nentropy = 0.65\nsamples = 3\nvalue = [0, 0, 0, 0, 0, 0, 0, 5, 0, 0, 1, 0, 0, 0\n0, 0, 0]\nclass = 7", fillcolor="#61eada"] ;
247 -> 248 ;
249 [label="entropy = 0.0\nsamples = 2\nvalue = [0, 0, 0, 0, 0, 0, 0, 5, 0, 0, 0, 0, 0, 0\n0, 0, 0]\nclass = 7", fillcolor="#39e5d1"] ;
248 -> 249 ;
250 [label="entropy = 0.0\nsamples = 1\nvalue = [0, 0, 0, 0, 0, 0, 0, 0, 0, 0, 1, 0, 0, 0\n0, 0, 0]\nclass = 10", fillcolor="#3944e5"] ;
248 -> 250 ;
251 [label="10 <= 0.5\nentropy = 1.0\nsamples = 2\nvalue = [0, 0, 0, 0, 1, 0, 0, 0, 0, 0, 1, 0, 0, 0\n0, 0, 0]\nclass = 4", fillcolor="#ffffff"] ;
247 -> 251 ;
252 [label="entropy = 0.0\nsamples = 1\nvalue = [0, 0, 0, 0, 0, 0, 0, 0, 0, 0, 1, 0, 0, 0\n0, 0, 0]\nclass = 10", fillcolor="#3944e5"] ;
251 -> 252 ;
253 [label="entropy = 0.0\nsamples = 1\nvalue = [0, 0, 0, 0, 1, 0, 0, 0, 0, 0, 0, 0, 0, 0\n0, 0, 0]\nclass = 4", fillcolor="#58e539"] ;
251 -> 253 ;
254 [label="entropy = 0.0\nsamples = 1\nvalue = [0, 0, 0, 0, 1, 0, 0, 0, 0, 0, 0, 0, 0, 0\n0, 0, 0]\nclass = 4", fillcolor="#58e539"] ;
246 -> 254 ;
255 [label="traveltime <= 0.5\nentropy = 0.72\nsamples = 2\nvalue = [0, 0, 0, 0, 0, 0, 0, 1, 0, 0, 0, 4, 0, 0\n0, 0, 0]\nclass = 11", fillcolor="#8f6aec"] ;
245 -> 255 ;
256 [label="entropy = 0.0\nsamples = 1\nvalue = [0, 0, 0, 0, 0, 0, 0, 0, 0, 0, 0, 4, 0, 0\n0, 0, 0]\nclass = 11", fillcolor="#6a39e5"] ;
255 -> 256 ;
257 [label="entropy = 0.0\nsamples = 1\nvalue = [0, 0, 0, 0, 0, 0, 0, 1, 0, 0, 0, 0, 0, 0\n0, 0, 0]\nclass = 7", fillcolor="#39e5d1"] ;
255 -> 257 ;
258 [label="famrel <= 2.5\nentropy = 3.23\nsamples = 46\nvalue = [6, 4, 1, 3, 10, 5, 16, 6, 8, 8, 0, 1, 0, 0\n2, 0, 0]\nclass = 6", fillcolor="#ebfcf4"] ;
182 -> 258 ;
259 [label="famrel <= 1.5\nentropy = 2.35\nsamples = 12\nvalue = [1, 0, 0, 0, 1, 1, 3, 0, 1, 7, 0, 0, 0, 0\n2, 0, 0]\nclass = 9", fillcolor="#c2d8f7"] ;
258 -> 259 ;
260 [label="Medu <= 3.5\nentropy = 0.59\nsamples = 4\nvalue = [0, 0, 0, 0, 0, 0, 0, 0, 1, 6, 0, 0, 0, 0\n0, 0, 0]\nclass = 9", fillcolor="#5a96e9"] ;
259 -> 260 ;
261 [label="entropy = 0.0\nsamples = 2\nvalue = [0, 0, 0, 0, 0, 0, 0, 0, 0, 3, 0, 0, 0, 0\n0, 0, 0]\nclass = 9", fillcolor="#3981e5"] ;
260 -> 261 ;
262 [label="Fedu <= 3.5\nentropy = 0.81\nsamples = 2\nvalue = [0, 0, 0, 0, 0, 0, 0, 0, 1, 3, 0, 0, 0, 0\n0, 0, 0]\nclass = 9", fillcolor="#7babee"] ;
260 -> 262 ;
263 [label="entropy = 0.0\nsamples = 1\nvalue = [0, 0, 0, 0, 0, 0, 0, 0, 1, 0, 0, 0, 0, 0\n0, 0, 0]\nclass = 8", fillcolor="#39bde5"] ;
262 -> 263 ;
264 [label="entropy = 0.0\nsamples = 1\nvalue = [0, 0, 0, 0, 0, 0, 0, 0, 0, 3, 0, 0, 0, 0\n0, 0, 0]\nclass = 9", fillcolor="#3981e5"] ;
262 -> 264 ;
265 [label="health <= 2.5\nentropy = 2.42\nsamples = 8\nvalue = [1, 0, 0, 0, 1, 1, 3, 0, 0, 1, 0, 0, 0, 0\n2, 0, 0]\nclass = 6", fillcolor="#e3fbf0"] ;
259 -> 265 ;
266 [label="2 <= 0.5\nentropy = 1.37\nsamples = 5\nvalue = [1, 0, 0, 0, 0, 1, 3, 0, 0, 0, 0, 0, 0, 0\n0, 0, 0]\nclass = 6", fillcolor="#9cf2ca"] ;
265 -> 266 ;
267 [label="4 <= 0.5\nentropy = 0.81\nsamples = 4\nvalue = [0, 0, 0, 0, 0, 1, 3, 0, 0, 0, 0, 0, 0, 0\n0, 0, 0]\nclass = 6", fillcolor="#7beeb8"] ;
266 -> 267 ;
268 [label="entropy = 0.0\nsamples = 2\nvalue = [0, 0, 0, 0, 0, 0, 2, 0, 0, 0, 0, 0, 0, 0\n0, 0, 0]\nclass = 6", fillcolor="#39e595"] ;
267 -> 268 ;
269 [label="Fedu <= 3.5\nentropy = 1.0\nsamples = 2\nvalue = [0, 0, 0, 0, 0, 1, 1, 0, 0, 0, 0, 0, 0, 0\n0, 0, 0]\nclass = 5", fillcolor="#ffffff"] ;
267 -> 269 ;
270 [label="entropy = 0.0\nsamples = 1\nvalue = [0, 0, 0, 0, 0, 0, 1, 0, 0, 0, 0, 0, 0, 0\n0, 0, 0]\nclass = 6", fillcolor="#39e595"] ;
269 -> 270 ;
271 [label="entropy = 0.0\nsamples = 1\nvalue = [0, 0, 0, 0, 0, 1, 0, 0, 0, 0, 0, 0, 0, 0\n0, 0, 0]\nclass = 5", fillcolor="#39e556"] ;
269 -> 271 ;
272 [label="entropy = 0.0\nsamples = 1\nvalue = [1, 0, 0, 0, 0, 0, 0, 0, 0, 0, 0, 0, 0, 0\n0, 0, 0]\nclass = 0", fillcolor="#e58139"] ;
266 -> 272 ;
273 [label="9 <= 0.5\nentropy = 1.5\nsamples = 3\nvalue = [0, 0, 0, 0, 1, 0, 0, 0, 0, 1, 0, 0, 0, 0\n2, 0, 0]\nclass = 14", fillcolor="#f6bde2"] ;
265 -> 273 ;
274 [label="7 <= 0.5\nentropy = 1.0\nsamples = 2\nvalue = [0, 0, 0, 0, 1, 0, 0, 0, 0, 1, 0, 0, 0, 0\n0, 0, 0]\nclass = 4", fillcolor="#ffffff"] ;
273 -> 274 ;
275 [label="entropy = 0.0\nsamples = 1\nvalue = [0, 0, 0, 0, 1, 0, 0, 0, 0, 0, 0, 0, 0, 0\n0, 0, 0]\nclass = 4", fillcolor="#58e539"] ;
274 -> 275 ;
276 [label="entropy = 0.0\nsamples = 1\nvalue = [0, 0, 0, 0, 0, 0, 0, 0, 0, 1, 0, 0, 0, 0\n0, 0, 0]\nclass = 9", fillcolor="#3981e5"] ;
274 -> 276 ;
277 [label="entropy = 0.0\nsamples = 1\nvalue = [0, 0, 0, 0, 0, 0, 0, 0, 0, 0, 0, 0, 0, 0\n2, 0, 0]\nclass = 14", fillcolor="#e539a9"] ;
273 -> 277 ;
278 [label="10 <= 0.5\nentropy = 3.09\nsamples = 34\nvalue = [5, 4, 1, 3, 9, 4, 13, 6, 7, 1, 0, 1, 0, 0\n0, 0, 0]\nclass = 6", fillcolor="#edfdf6"] ;
258 -> 278 ;
279 [label="health <= 3.5\nentropy = 2.86\nsamples = 22\nvalue = [0, 1, 1, 2, 4, 1, 7, 6, 7, 1, 0, 1, 0, 0\n0, 0, 0]\nclass = 6", fillcolor="#ffffff"] ;
278 -> 279 ;
280 [label="failures <= 0.5\nentropy = 3.03\nsamples = 11\nvalue = [0, 1, 1, 0, 3, 1, 2, 2, 1, 1, 0, 1, 0, 0\n0, 0, 0]\nclass = 4", fillcolor="#f0fded"] ;
279 -> 280 ;
281 [label="3 <= 0.5\nentropy = 2.73\nsamples = 8\nvalue = [0, 0, 1, 0, 0, 1, 2, 2, 1, 1, 0, 1, 0, 0\n0, 0, 0]\nclass = 6", fillcolor="#ffffff"] ;
280 -> 281 ;
282 [label="address <= 0.5\nentropy = 1.5\nsamples = 3\nvalue = [0, 0, 1, 0, 0, 1, 2, 0, 0, 0, 0, 0, 0, 0\n0, 0, 0]\nclass = 6", fillcolor="#bdf6dc"] ;
281 -> 282 ;
283 [label="entropy = 0.0\nsamples = 1\nvalue = [0, 0, 0, 0, 0, 1, 0, 0, 0, 0, 0, 0, 0, 0\n0, 0, 0]\nclass = 5", fillcolor="#39e556"] ;
282 -> 283 ;
284 [label="0 <= 0.5\nentropy = 0.92\nsamples = 2\nvalue = [0, 0, 1, 0, 0, 0, 2, 0, 0, 0, 0, 0, 0, 0\n0, 0, 0]\nclass = 6", fillcolor="#9cf2ca"] ;
282 -> 284 ;
285 [label="entropy = 0.0\nsamples = 1\nvalue = [0, 0, 1, 0, 0, 0, 0, 0, 0, 0, 0, 0, 0, 0\n0, 0, 0]\nclass = 2", fillcolor="#d1e539"] ;
284 -> 285 ;
286 [label="entropy = 0.0\nsamples = 1\nvalue = [0, 0, 0, 0, 0, 0, 2, 0, 0, 0, 0, 0, 0, 0\n0, 0, 0]\nclass = 6", fillcolor="#39e595"] ;
284 -> 286 ;
287 [label="goout <= 2.5\nentropy = 1.92\nsamples = 5\nvalue = [0, 0, 0, 0, 0, 0, 0, 2, 1, 1, 0, 1, 0, 0\n0, 0, 0]\nclass = 7", fillcolor="#cef8f4"] ;
281 -> 287 ;
288 [label="age <= 1.0\nentropy = 1.0\nsamples = 2\nvalue = [0, 0, 0, 0, 0, 0, 0, 0, 1, 0, 0, 1, 0, 0\n0, 0, 0]\nclass = 8", fillcolor="#ffffff"] ;
287 -> 288 ;
289 [label="entropy = 0.0\nsamples = 1\nvalue = [0, 0, 0, 0, 0, 0, 0, 0, 0, 0, 0, 1, 0, 0\n0, 0, 0]\nclass = 11", fillcolor="#6a39e5"] ;
288 -> 289 ;
290 [label="entropy = 0.0\nsamples = 1\nvalue = [0, 0, 0, 0, 0, 0, 0, 0, 1, 0, 0, 0, 0, 0\n0, 0, 0]\nclass = 8", fillcolor="#39bde5"] ;
288 -> 290 ;
291 [label="address <= 0.5\nentropy = 0.92\nsamples = 3\nvalue = [0, 0, 0, 0, 0, 0, 0, 2, 0, 1, 0, 0, 0, 0\n0, 0, 0]\nclass = 7", fillcolor="#9cf2e8"] ;
287 -> 291 ;
292 [label="entropy = 0.0\nsamples = 1\nvalue = [0, 0, 0, 0, 0, 0, 0, 1, 0, 0, 0, 0, 0, 0\n0, 0, 0]\nclass = 7", fillcolor="#39e5d1"] ;
291 -> 292 ;
293 [label="absences <= 12.5\nentropy = 1.0\nsamples = 2\nvalue = [0, 0, 0, 0, 0, 0, 0, 1, 0, 1, 0, 0, 0, 0\n0, 0, 0]\nclass = 7", fillcolor="#ffffff"] ;
291 -> 293 ;
294 [label="entropy = 0.0\nsamples = 1\nvalue = [0, 0, 0, 0, 0, 0, 0, 1, 0, 0, 0, 0, 0, 0\n0, 0, 0]\nclass = 7", fillcolor="#39e5d1"] ;
293 -> 294 ;
295 [label="entropy = 0.0\nsamples = 1\nvalue = [0, 0, 0, 0, 0, 0, 0, 0, 0, 1, 0, 0, 0, 0\n0, 0, 0]\nclass = 9", fillcolor="#3981e5"] ;
293 -> 295 ;
296 [label="internet <= 0.5\nentropy = 0.81\nsamples = 3\nvalue = [0, 1, 0, 0, 3, 0, 0, 0, 0, 0, 0, 0, 0, 0\n0, 0, 0]\nclass = 4", fillcolor="#90ee7b"] ;
280 -> 296 ;
297 [label="entropy = 0.0\nsamples = 1\nvalue = [0, 1, 0, 0, 0, 0, 0, 0, 0, 0, 0, 0, 0, 0\n0, 0, 0]\nclass = 1", fillcolor="#e5bd39"] ;
296 -> 297 ;
298 [label="entropy = 0.0\nsamples = 2\nvalue = [0, 0, 0, 0, 3, 0, 0, 0, 0, 0, 0, 0, 0, 0\n0, 0, 0]\nclass = 4", fillcolor="#58e539"] ;
296 -> 298 ;
299 [label="paid <= 0.5\nentropy = 2.11\nsamples = 11\nvalue = [0, 0, 0, 2, 1, 0, 5, 4, 6, 0, 0, 0, 0, 0\n0, 0, 0]\nclass = 8", fillcolor="#f0fafd"] ;
279 -> 299 ;
300 [label="famsize <= 0.5\nentropy = 1.22\nsamples = 6\nvalue = [0, 0, 0, 2, 0, 0, 1, 0, 6, 0, 0, 0, 0, 0\n0, 0, 0]\nclass = 8", fillcolor="#8ed9f0"] ;
299 -> 300 ;
301 [label="absences <= 6.5\nentropy = 1.0\nsamples = 2\nvalue = [0, 0, 0, 1, 0, 0, 1, 0, 0, 0, 0, 0, 0, 0\n0, 0, 0]\nclass = 3", fillcolor="#ffffff"] ;
300 -> 301 ;
302 [label="entropy = 0.0\nsamples = 1\nvalue = [0, 0, 0, 1, 0, 0, 0, 0, 0, 0, 0, 0, 0, 0\n0, 0, 0]\nclass = 3", fillcolor="#95e539"] ;
301 -> 302 ;
303 [label="entropy = 0.0\nsamples = 1\nvalue = [0, 0, 0, 0, 0, 0, 1, 0, 0, 0, 0, 0, 0, 0\n0, 0, 0]\nclass = 6", fillcolor="#39e595"] ;
301 -> 303 ;
304 [label="Medu <= 3.0\nentropy = 0.59\nsamples = 4\nvalue = [0, 0, 0, 1, 0, 0, 0, 0, 6, 0, 0, 0, 0, 0\n0, 0, 0]\nclass = 8", fillcolor="#5ac8e9"] ;
300 -> 304 ;
305 [label="entropy = 0.0\nsamples = 2\nvalue = [0, 0, 0, 0, 0, 0, 0, 0, 4, 0, 0, 0, 0, 0\n0, 0, 0]\nclass = 8", fillcolor="#39bde5"] ;
304 -> 305 ;
306 [label="Pstatus <= 0.5\nentropy = 0.92\nsamples = 2\nvalue = [0, 0, 0, 1, 0, 0, 0, 0, 2, 0, 0, 0, 0, 0\n0, 0, 0]\nclass = 8", fillcolor="#9cdef2"] ;
304 -> 306 ;
307 [label="entropy = 0.0\nsamples = 1\nvalue = [0, 0, 0, 1, 0, 0, 0, 0, 0, 0, 0, 0, 0, 0\n0, 0, 0]\nclass = 3", fillcolor="#95e539"] ;
306 -> 307 ;
308 [label="entropy = 0.0\nsamples = 1\nvalue = [0, 0, 0, 0, 0, 0, 0, 0, 2, 0, 0, 0, 0, 0\n0, 0, 0]\nclass = 8", fillcolor="#39bde5"] ;
306 -> 308 ;
309 [label="11 <= 0.5\nentropy = 1.39\nsamples = 5\nvalue = [0, 0, 0, 0, 1, 0, 4, 4, 0, 0, 0, 0, 0, 0\n0, 0, 0]\nclass = 6", fillcolor="#ffffff"] ;
299 -> 309 ;
310 [label="famsup <= 0.5\nentropy = 0.72\nsamples = 2\nvalue = [0, 0, 0, 0, 1, 0, 4, 0, 0, 0, 0, 0, 0, 0\n0, 0, 0]\nclass = 6", fillcolor="#6aecb0"] ;
309 -> 310 ;
311 [label="entropy = 0.0\nsamples = 1\nvalue = [0, 0, 0, 0, 1, 0, 0, 0, 0, 0, 0, 0, 0, 0\n0, 0, 0]\nclass = 4", fillcolor="#58e539"] ;
310 -> 311 ;
312 [label="entropy = 0.0\nsamples = 1\nvalue = [0, 0, 0, 0, 0, 0, 4, 0, 0, 0, 0, 0, 0, 0\n0, 0, 0]\nclass = 6", fillcolor="#39e595"] ;
310 -> 312 ;
313 [label="entropy = 0.0\nsamples = 3\nvalue = [0, 0, 0, 0, 0, 0, 0, 4, 0, 0, 0, 0, 0, 0\n0, 0, 0]\nclass = 7", fillcolor="#39e5d1"] ;
309 -> 313 ;
314 [label="address <= 0.5\nentropy = 2.43\nsamples = 12\nvalue = [5, 3, 0, 1, 5, 3, 6, 0, 0, 0, 0, 0, 0, 0\n0, 0, 0]\nclass = 6", fillcolor="#f4fef9"] ;
278 -> 314 ;
315 [label="traveltime <= 1.5\nentropy = 1.99\nsamples = 6\nvalue = [3, 2, 0, 1, 1, 0, 6, 0, 0, 0, 0, 0, 0, 0\n0, 0, 0]\nclass = 6", fillcolor="#c4f7df"] ;
314 -> 315 ;
316 [label="Walc <= 2.5\nentropy = 0.92\nsamples = 2\nvalue = [0, 2, 0, 1, 0, 0, 0, 0, 0, 0, 0, 0, 0, 0\n0, 0, 0]\nclass = 1", fillcolor="#f2de9c"] ;
315 -> 316 ;
317 [label="entropy = 0.0\nsamples = 1\nvalue = [0, 2, 0, 0, 0, 0, 0, 0, 0, 0, 0, 0, 0, 0\n0, 0, 0]\nclass = 1", fillcolor="#e5bd39"] ;
316 -> 317 ;
318 [label="entropy = 0.0\nsamples = 1\nvalue = [0, 0, 0, 1, 0, 0, 0, 0, 0, 0, 0, 0, 0, 0\n0, 0, 0]\nclass = 3", fillcolor="#95e539"] ;
316 -> 318 ;
319 [label="0 <= 0.5\nentropy = 1.3\nsamples = 4\nvalue = [3, 0, 0, 0, 1, 0, 6, 0, 0, 0, 0, 0, 0, 0\n0, 0, 0]\nclass = 6", fillcolor="#aaf4d2"] ;
315 -> 319 ;
320 [label="freetime <= 2.0\nentropy = 0.59\nsamples = 3\nvalue = [0, 0, 0, 0, 1, 0, 6, 0, 0, 0, 0, 0, 0, 0\n0, 0, 0]\nclass = 6", fillcolor="#5ae9a7"] ;
319 -> 320 ;
321 [label="entropy = 0.0\nsamples = 1\nvalue = [0, 0, 0, 0, 1, 0, 0, 0, 0, 0, 0, 0, 0, 0\n0, 0, 0]\nclass = 4", fillcolor="#58e539"] ;
320 -> 321 ;
322 [label="entropy = 0.0\nsamples = 2\nvalue = [0, 0, 0, 0, 0, 0, 6, 0, 0, 0, 0, 0, 0, 0\n0, 0, 0]\nclass = 6", fillcolor="#39e595"] ;
320 -> 322 ;
323 [label="entropy = 0.0\nsamples = 1\nvalue = [3, 0, 0, 0, 0, 0, 0, 0, 0, 0, 0, 0, 0, 0\n0, 0, 0]\nclass = 0", fillcolor="#e58139"] ;
319 -> 323 ;
324 [label="higher <= 0.5\nentropy = 1.85\nsamples = 6\nvalue = [2, 1, 0, 0, 4, 3, 0, 0, 0, 0, 0, 0, 0, 0\n0, 0, 0]\nclass = 4", fillcolor="#e7fbe3"] ;
314 -> 324 ;
325 [label="entropy = 0.0\nsamples = 2\nvalue = [0, 0, 0, 0, 4, 0, 0, 0, 0, 0, 0, 0, 0, 0\n0, 0, 0]\nclass = 4", fillcolor="#58e539"] ;
324 -> 325 ;
326 [label="Dalc <= 2.0\nentropy = 1.46\nsamples = 4\nvalue = [2, 1, 0, 0, 0, 3, 0, 0, 0, 0, 0, 0, 0, 0\n0, 0, 0]\nclass = 5", fillcolor="#cef8d5"] ;
324 -> 326 ;
327 [label="famsup <= 0.5\nentropy = 0.92\nsamples = 2\nvalue = [2, 1, 0, 0, 0, 0, 0, 0, 0, 0, 0, 0, 0, 0\n0, 0, 0]\nclass = 0", fillcolor="#f2c09c"] ;
326 -> 327 ;
328 [label="entropy = 0.0\nsamples = 1\nvalue = [2, 0, 0, 0, 0, 0, 0, 0, 0, 0, 0, 0, 0, 0\n0, 0, 0]\nclass = 0", fillcolor="#e58139"] ;
327 -> 328 ;
329 [label="entropy = 0.0\nsamples = 1\nvalue = [0, 1, 0, 0, 0, 0, 0, 0, 0, 0, 0, 0, 0, 0\n0, 0, 0]\nclass = 1", fillcolor="#e5bd39"] ;
327 -> 329 ;
330 [label="entropy = 0.0\nsamples = 2\nvalue = [0, 0, 0, 0, 0, 3, 0, 0, 0, 0, 0, 0, 0, 0\n0, 0, 0]\nclass = 5", fillcolor="#39e556"] ;
326 -> 330 ;
}