digraph Tree {
node [shape=box, style="filled, rounded", color="black", fontname=helvetica] ;
edge [fontname=helvetica] ;
0 [label="school <= 0.5\nentropy = 1.0\nsamples = 199\nvalue = [160, 156]\nclass = 0", fillcolor="#fefcfa"] ;
1 [label="failures <= 1.5\nentropy = 1.0\nsamples = 173\nvalue = [133, 145]\nclass = 1", fillcolor="#eff7fd"] ;
0 -> 1 [labeldistance=2.5, labelangle=45, headlabel="True"] ;
2 [label="3 <= 0.5\nentropy = 0.99\nsamples = 158\nvalue = [110, 143]\nclass = 1", fillcolor="#d1e8f9"] ;
1 -> 2 ;
3 [label="famrel <= 1.5\nentropy = 1.0\nsamples = 114\nvalue = [92, 87]\nclass = 0", fillcolor="#fef8f4"] ;
2 -> 3 ;
4 [label="15 <= 0.5\nentropy = 0.44\nsamples = 6\nvalue = [1, 10]\nclass = 1", fillcolor="#4da7e8"] ;
3 -> 4 ;
5 [label="romantic <= 0.5\nentropy = 0.81\nsamples = 2\nvalue = [1, 3]\nclass = 1", fillcolor="#7bbeee"] ;
4 -> 5 ;
6 [label="entropy = 0.0\nsamples = 1\nvalue = [1, 0]\nclass = 0", fillcolor="#e58139"] ;
5 -> 6 ;
7 [label="entropy = 0.0\nsamples = 1\nvalue = [0, 3]\nclass = 1", fillcolor="#399de5"] ;
5 -> 7 ;
8 [label="entropy = 0.0\nsamples = 4\nvalue = [0, 7]\nclass = 1", fillcolor="#399de5"] ;
4 -> 8 ;
9 [label="age <= 1.5\nentropy = 0.99\nsamples = 108\nvalue = [91, 77]\nclass = 0", fillcolor="#fbece1"] ;
3 -> 9 ;
10 [label="schoolsup <= 0.5\nentropy = 0.99\nsamples = 54\nvalue = [36, 48]\nclass = 1", fillcolor="#cee6f8"] ;
9 -> 10 ;
11 [label="9 <= 0.5\nentropy = 0.95\nsamples = 42\nvalue = [24, 42]\nclass = 1", fillcolor="#aad5f4"] ;
10 -> 11 ;
12 [label="internet <= 0.5\nentropy = 0.98\nsamples = 36\nvalue = [23, 33]\nclass = 1", fillcolor="#c3e1f7"] ;
11 -> 12 ;
13 [label="Medu <= 3.5\nentropy = 0.5\nsamples = 7\nvalue = [8, 1]\nclass = 0", fillcolor="#e89152"] ;
12 -> 13 ;
14 [label="entropy = 0.0\nsamples = 5\nvalue = [7, 0]\nclass = 0", fillcolor="#e58139"] ;
13 -> 14 ;
15 [label="11 <= 0.5\nentropy = 1.0\nsamples = 2\nvalue = [1, 1]\nclass = 0", fillcolor="#ffffff"] ;
13 -> 15 ;
16 [label="entropy = 0.0\nsamples = 1\nvalue = [1, 0]\nclass = 0", fillcolor="#e58139"] ;
15 -> 16 ;
17 [label="entropy = 0.0\nsamples = 1\nvalue = [0, 1]\nclass = 1", fillcolor="#399de5"] ;
15 -> 17 ;
18 [label="15 <= 0.5\nentropy = 0.9\nsamples = 29\nvalue = [15, 32]\nclass = 1", fillcolor="#96cbf1"] ;
12 -> 18 ;
19 [label="address <= 0.5\nentropy = 0.39\nsamples = 7\nvalue = [1, 12]\nclass = 1", fillcolor="#49a5e7"] ;
18 -> 19 ;
20 [label="entropy = 0.0\nsamples = 1\nvalue = [1, 0]\nclass = 0", fillcolor="#e58139"] ;
19 -> 20 ;
21 [label="entropy = 0.0\nsamples = 6\nvalue = [0, 12]\nclass = 1", fillcolor="#399de5"] ;
19 -> 21 ;
22 [label="address <= 0.5\nentropy = 0.98\nsamples = 22\nvalue = [14, 20]\nclass = 1", fillcolor="#c4e2f7"] ;
18 -> 22 ;
23 [label="entropy = 0.0\nsamples = 2\nvalue = [3, 0]\nclass = 0", fillcolor="#e58139"] ;
22 -> 23 ;
24 [label="paid <= 0.5\nentropy = 0.94\nsamples = 20\nvalue = [11, 20]\nclass = 1", fillcolor="#a6d3f3"] ;
22 -> 24 ;
25 [label="romantic <= 0.5\nentropy = 0.67\nsamples = 10\nvalue = [3, 14]\nclass = 1", fillcolor="#63b2eb"] ;
24 -> 25 ;
26 [label="2 <= 0.5\nentropy = 0.35\nsamples = 9\nvalue = [1, 14]\nclass = 1", fillcolor="#47a4e7"] ;
25 -> 26 ;
27 [label="entropy = 0.0\nsamples = 5\nvalue = [0, 8]\nclass = 1", fillcolor="#399de5"] ;
26 -> 27 ;
28 [label="traveltime <= 0.5\nentropy = 0.59\nsamples = 4\nvalue = [1, 6]\nclass = 1", fillcolor="#5aade9"] ;
26 -> 28 ;
29 [label="activities <= 0.5\nentropy = 1.0\nsamples = 2\nvalue = [1, 1]\nclass = 0", fillcolor="#ffffff"] ;
28 -> 29 ;
30 [label="entropy = 0.0\nsamples = 1\nvalue = [1, 0]\nclass = 0", fillcolor="#e58139"] ;
29 -> 30 ;
31 [label="entropy = 0.0\nsamples = 1\nvalue = [0, 1]\nclass = 1", fillcolor="#399de5"] ;
29 -> 31 ;
32 [label="entropy = 0.0\nsamples = 2\nvalue = [0, 5]\nclass = 1", fillcolor="#399de5"] ;
28 -> 32 ;
33 [label="entropy = 0.0\nsamples = 1\nvalue = [2, 0]\nclass = 0", fillcolor="#e58139"] ;
25 -> 33 ;
34 [label="age <= 0.5\nentropy = 0.99\nsamples = 10\nvalue = [8, 6]\nclass = 0", fillcolor="#f8e0ce"] ;
24 -> 34 ;
35 [label="entropy = 0.0\nsamples = 4\nvalue = [0, 4]\nclass = 1", fillcolor="#399de5"] ;
34 -> 35 ;
36 [label="famsize <= 0.5\nentropy = 0.72\nsamples = 6\nvalue = [8, 2]\nclass = 0", fillcolor="#eca06a"] ;
34 -> 36 ;
37 [label="8 <= 0.5\nentropy = 0.92\nsamples = 5\nvalue = [4, 2]\nclass = 0", fillcolor="#f2c09c"] ;
36 -> 37 ;
38 [label="famrel <= 3.5\nentropy = 1.0\nsamples = 4\nvalue = [2, 2]\nclass = 0", fillcolor="#ffffff"] ;
37 -> 38 ;
39 [label="entropy = 0.0\nsamples = 1\nvalue = [0, 1]\nclass = 1", fillcolor="#399de5"] ;
38 -> 39 ;
40 [label="13 <= 0.5\nentropy = 0.92\nsamples = 3\nvalue = [2, 1]\nclass = 0", fillcolor="#f2c09c"] ;
38 -> 40 ;
41 [label="entropy = 0.0\nsamples = 2\nvalue = [2, 0]\nclass = 0", fillcolor="#e58139"] ;
40 -> 41 ;
42 [label="entropy = 0.0\nsamples = 1\nvalue = [0, 1]\nclass = 1", fillcolor="#399de5"] ;
40 -> 42 ;
43 [label="entropy = 0.0\nsamples = 1\nvalue = [2, 0]\nclass = 0", fillcolor="#e58139"] ;
37 -> 43 ;
44 [label="entropy = 0.0\nsamples = 1\nvalue = [4, 0]\nclass = 0", fillcolor="#e58139"] ;
36 -> 44 ;
45 [label="famrel <= 2.5\nentropy = 0.47\nsamples = 6\nvalue = [1, 9]\nclass = 1", fillcolor="#4fa8e8"] ;
11 -> 45 ;
46 [label="entropy = 0.0\nsamples = 1\nvalue = [0, 2]\nclass = 1", fillcolor="#399de5"] ;
45 -> 46 ;
47 [label="age <= 0.5\nentropy = 0.54\nsamples = 5\nvalue = [1, 7]\nclass = 1", fillcolor="#55abe9"] ;
45 -> 47 ;
48 [label="entropy = 0.0\nsamples = 2\nvalue = [0, 4]\nclass = 1", fillcolor="#399de5"] ;
47 -> 48 ;
49 [label="activities <= 0.5\nentropy = 0.81\nsamples = 3\nvalue = [1, 3]\nclass = 1", fillcolor="#7bbeee"] ;
47 -> 49 ;
50 [label="entropy = 0.0\nsamples = 1\nvalue = [1, 0]\nclass = 0", fillcolor="#e58139"] ;
49 -> 50 ;
51 [label="entropy = 0.0\nsamples = 2\nvalue = [0, 3]\nclass = 1", fillcolor="#399de5"] ;
49 -> 51 ;
52 [label="freetime <= 2.5\nentropy = 0.92\nsamples = 12\nvalue = [12, 6]\nclass = 0", fillcolor="#f2c09c"] ;
10 -> 52 ;
53 [label="Walc <= 0.5\nentropy = 1.0\nsamples = 9\nvalue = [7, 6]\nclass = 0", fillcolor="#fbede3"] ;
52 -> 53 ;
54 [label="Pstatus <= 0.5\nentropy = 0.97\nsamples = 7\nvalue = [4, 6]\nclass = 1", fillcolor="#bddef6"] ;
53 -> 54 ;
55 [label="entropy = 0.0\nsamples = 2\nvalue = [0, 3]\nclass = 1", fillcolor="#399de5"] ;
54 -> 55 ;
56 [label="7 <= 0.5\nentropy = 0.99\nsamples = 5\nvalue = [4, 3]\nclass = 0", fillcolor="#f8e0ce"] ;
54 -> 56 ;
57 [label="entropy = 0.0\nsamples = 2\nvalue = [3, 0]\nclass = 0", fillcolor="#e58139"] ;
56 -> 57 ;
58 [label="Medu <= 2.5\nentropy = 0.81\nsamples = 3\nvalue = [1, 3]\nclass = 1", fillcolor="#7bbeee"] ;
56 -> 58 ;
59 [label="entropy = 0.0\nsamples = 2\nvalue = [0, 3]\nclass = 1", fillcolor="#399de5"] ;
58 -> 59 ;
60 [label="entropy = 0.0\nsamples = 1\nvalue = [1, 0]\nclass = 0", fillcolor="#e58139"] ;
58 -> 60 ;
61 [label="entropy = 0.0\nsamples = 2\nvalue = [3, 0]\nclass = 0", fillcolor="#e58139"] ;
53 -> 61 ;
62 [label="entropy = 0.0\nsamples = 3\nvalue = [5, 0]\nclass = 0", fillcolor="#e58139"] ;
52 -> 62 ;
63 [label="1 <= 0.5\nentropy = 0.93\nsamples = 54\nvalue = [55, 29]\nclass = 0", fillcolor="#f3c3a1"] ;
9 -> 63 ;
64 [label="goout <= 2.5\nentropy = 0.87\nsamples = 49\nvalue = [54, 22]\nclass = 0", fillcolor="#f0b48a"] ;
63 -> 64 ;
65 [label="11 <= 0.5\nentropy = 0.95\nsamples = 34\nvalue = [35, 20]\nclass = 0", fillcolor="#f4c9aa"] ;
64 -> 65 ;
66 [label="freetime <= 0.5\nentropy = 0.99\nsamples = 22\nvalue = [19, 16]\nclass = 0", fillcolor="#fbebe0"] ;
65 -> 66 ;
67 [label="entropy = 0.0\nsamples = 1\nvalue = [0, 2]\nclass = 1", fillcolor="#399de5"] ;
66 -> 67 ;
68 [label="Dalc <= 1.5\nentropy = 0.98\nsamples = 21\nvalue = [19, 14]\nclass = 0", fillcolor="#f8decb"] ;
66 -> 68 ;
69 [label="famsize <= 0.5\nentropy = 0.99\nsamples = 20\nvalue = [17, 14]\nclass = 0", fillcolor="#fae9dc"] ;
68 -> 69 ;
70 [label="15 <= 0.5\nentropy = 1.0\nsamples = 18\nvalue = [13, 14]\nclass = 1", fillcolor="#f1f8fd"] ;
69 -> 70 ;
71 [label="16 <= 0.5\nentropy = 0.5\nsamples = 6\nvalue = [1, 8]\nclass = 1", fillcolor="#52a9e8"] ;
70 -> 71 ;
72 [label="entropy = 0.0\nsamples = 4\nvalue = [0, 7]\nclass = 1", fillcolor="#399de5"] ;
71 -> 72 ;
73 [label="Walc <= 0.5\nentropy = 1.0\nsamples = 2\nvalue = [1, 1]\nclass = 0", fillcolor="#ffffff"] ;
71 -> 73 ;
74 [label="entropy = 0.0\nsamples = 1\nvalue = [0, 1]\nclass = 1", fillcolor="#399de5"] ;
73 -> 74 ;
75 [label="entropy = 0.0\nsamples = 1\nvalue = [1, 0]\nclass = 0", fillcolor="#e58139"] ;
73 -> 75 ;
76 [label="freetime <= 2.5\nentropy = 0.92\nsamples = 12\nvalue = [12, 6]\nclass = 0", fillcolor="#f2c09c"] ;
70 -> 76 ;
77 [label="0 <= 0.5\nentropy = 0.97\nsamples = 11\nvalue = [9, 6]\nclass = 0", fillcolor="#f6d5bd"] ;
76 -> 77 ;
78 [label="goout <= 1.5\nentropy = 1.0\nsamples = 8\nvalue = [6, 6]\nclass = 0", fillcolor="#ffffff"] ;
77 -> 78 ;
79 [label="Medu <= 2.5\nentropy = 0.95\nsamples = 5\nvalue = [5, 3]\nclass = 0", fillcolor="#f5cdb0"] ;
78 -> 79 ;
80 [label="entropy = 0.0\nsamples = 2\nvalue = [4, 0]\nclass = 0", fillcolor="#e58139"] ;
79 -> 80 ;
81 [label="address <= 0.5\nentropy = 0.81\nsamples = 3\nvalue = [1, 3]\nclass = 1", fillcolor="#7bbeee"] ;
79 -> 81 ;
82 [label="entropy = 0.0\nsamples = 2\nvalue = [0, 3]\nclass = 1", fillcolor="#399de5"] ;
81 -> 82 ;
83 [label="entropy = 0.0\nsamples = 1\nvalue = [1, 0]\nclass = 0", fillcolor="#e58139"] ;
81 -> 83 ;
84 [label="Fedu <= 1.5\nentropy = 0.81\nsamples = 3\nvalue = [1, 3]\nclass = 1", fillcolor="#7bbeee"] ;
78 -> 84 ;
85 [label="entropy = 0.0\nsamples = 1\nvalue = [1, 0]\nclass = 0", fillcolor="#e58139"] ;
84 -> 85 ;
86 [label="entropy = 0.0\nsamples = 2\nvalue = [0, 3]\nclass = 1", fillcolor="#399de5"] ;
84 -> 86 ;
87 [label="entropy = 0.0\nsamples = 3\nvalue = [3, 0]\nclass = 0", fillcolor="#e58139"] ;
77 -> 87 ;
88 [label="entropy = 0.0\nsamples = 1\nvalue = [3, 0]\nclass = 0", fillcolor="#e58139"] ;
76 -> 88 ;
89 [label="entropy = 0.0\nsamples = 2\nvalue = [4, 0]\nclass = 0", fillcolor="#e58139"] ;
69 -> 89 ;
90 [label="entropy = 0.0\nsamples = 1\nvalue = [2, 0]\nclass = 0", fillcolor="#e58139"] ;
68 -> 90 ;
91 [label="absences <= 1.0\nentropy = 0.72\nsamples = 12\nvalue = [16, 4]\nclass = 0", fillcolor="#eca06a"] ;
65 -> 91 ;
92 [label="entropy = 0.0\nsamples = 5\nvalue = [10, 0]\nclass = 0", fillcolor="#e58139"] ;
91 -> 92 ;
93 [label="romantic <= 0.5\nentropy = 0.97\nsamples = 7\nvalue = [6, 4]\nclass = 0", fillcolor="#f6d5bd"] ;
91 -> 93 ;
94 [label="famsup <= 0.5\nentropy = 0.65\nsamples = 4\nvalue = [5, 1]\nclass = 0", fillcolor="#ea9a61"] ;
93 -> 94 ;
95 [label="entropy = 0.0\nsamples = 2\nvalue = [3, 0]\nclass = 0", fillcolor="#e58139"] ;
94 -> 95 ;
96 [label="2 <= 0.5\nentropy = 0.92\nsamples = 2\nvalue = [2, 1]\nclass = 0", fillcolor="#f2c09c"] ;
94 -> 96 ;
97 [label="entropy = 0.0\nsamples = 1\nvalue = [2, 0]\nclass = 0", fillcolor="#e58139"] ;
96 -> 97 ;
98 [label="entropy = 0.0\nsamples = 1\nvalue = [0, 1]\nclass = 1", fillcolor="#399de5"] ;
96 -> 98 ;
99 [label="studytime <= 1.5\nentropy = 0.81\nsamples = 3\nvalue = [1, 3]\nclass = 1", fillcolor="#7bbeee"] ;
93 -> 99 ;
100 [label="entropy = 0.0\nsamples = 2\nvalue = [0, 3]\nclass = 1", fillcolor="#399de5"] ;
99 -> 100 ;
101 [label="entropy = 0.0\nsamples = 1\nvalue = [1, 0]\nclass = 0", fillcolor="#e58139"] ;
99 -> 101 ;
102 [label="sex <= 0.5\nentropy = 0.45\nsamples = 15\nvalue = [19, 2]\nclass = 0", fillcolor="#e88e4e"] ;
64 -> 102 ;
103 [label="Walc <= 1.5\nentropy = 0.81\nsamples = 7\nvalue = [6, 2]\nclass = 0", fillcolor="#eeab7b"] ;
102 -> 103 ;
104 [label="address <= 0.5\nentropy = 0.59\nsamples = 6\nvalue = [6, 1]\nclass = 0", fillcolor="#e9965a"] ;
103 -> 104 ;
105 [label="8 <= 0.5\nentropy = 1.0\nsamples = 2\nvalue = [1, 1]\nclass = 0", fillcolor="#ffffff"] ;
104 -> 105 ;
106 [label="entropy = 0.0\nsamples = 1\nvalue = [0, 1]\nclass = 1", fillcolor="#399de5"] ;
105 -> 106 ;
107 [label="entropy = 0.0\nsamples = 1\nvalue = [1, 0]\nclass = 0", fillcolor="#e58139"] ;
105 -> 107 ;
108 [label="entropy = 0.0\nsamples = 4\nvalue = [5, 0]\nclass = 0", fillcolor="#e58139"] ;
104 -> 108 ;
109 [label="entropy = 0.0\nsamples = 1\nvalue = [0, 1]\nclass = 1", fillcolor="#399de5"] ;
103 -> 109 ;
110 [label="entropy = 0.0\nsamples = 8\nvalue = [13, 0]\nclass = 0", fillcolor="#e58139"] ;
102 -> 110 ;
111 [label="Pstatus <= 0.5\nentropy = 0.54\nsamples = 5\nvalue = [1, 7]\nclass = 1", fillcolor="#55abe9"] ;
63 -> 111 ;
112 [label="nursery <= 0.5\nentropy = 0.92\nsamples = 2\nvalue = [1, 2]\nclass = 1", fillcolor="#9ccef2"] ;
111 -> 112 ;
113 [label="entropy = 0.0\nsamples = 1\nvalue = [1, 0]\nclass = 0", fillcolor="#e58139"] ;
112 -> 113 ;
114 [label="entropy = 0.0\nsamples = 1\nvalue = [0, 2]\nclass = 1", fillcolor="#399de5"] ;
112 -> 114 ;
115 [label="entropy = 0.0\nsamples = 3\nvalue = [0, 5]\nclass = 1", fillcolor="#399de5"] ;
111 -> 115 ;
116 [label="8 <= 0.5\nentropy = 0.8\nsamples = 44\nvalue = [18, 56]\nclass = 1", fillcolor="#79bced"] ;
2 -> 116 ;
117 [label="Dalc <= 3.5\nentropy = 0.95\nsamples = 24\nvalue = [14, 24]\nclass = 1", fillcolor="#acd6f4"] ;
116 -> 117 ;
118 [label="10 <= 0.5\nentropy = 0.9\nsamples = 23\nvalue = [11, 24]\nclass = 1", fillcolor="#94caf1"] ;
117 -> 118 ;
119 [label="14 <= 0.5\nentropy = 0.68\nsamples = 16\nvalue = [4, 18]\nclass = 1", fillcolor="#65b3eb"] ;
118 -> 119 ;
120 [label="entropy = 0.0\nsamples = 11\nvalue = [0, 16]\nclass = 1", fillcolor="#399de5"] ;
119 -> 120 ;
121 [label="health <= 2.5\nentropy = 0.92\nsamples = 5\nvalue = [4, 2]\nclass = 0", fillcolor="#f2c09c"] ;
119 -> 121 ;
122 [label="entropy = 0.0\nsamples = 2\nvalue = [3, 0]\nclass = 0", fillcolor="#e58139"] ;
121 -> 122 ;
123 [label="failures <= 0.5\nentropy = 0.92\nsamples = 3\nvalue = [1, 2]\nclass = 1", fillcolor="#9ccef2"] ;
121 -> 123 ;
124 [label="entropy = 0.0\nsamples = 2\nvalue = [0, 2]\nclass = 1", fillcolor="#399de5"] ;
123 -> 124 ;
125 [label="entropy = 0.0\nsamples = 1\nvalue = [1, 0]\nclass = 0", fillcolor="#e58139"] ;
123 -> 125 ;
126 [label="goout <= 1.5\nentropy = 1.0\nsamples = 7\nvalue = [7, 6]\nclass = 0", fillcolor="#fbede3"] ;
118 -> 126 ;
127 [label="entropy = 0.0\nsamples = 1\nvalue = [4, 0]\nclass = 0", fillcolor="#e58139"] ;
126 -> 127 ;
128 [label="higher <= 0.5\nentropy = 0.92\nsamples = 6\nvalue = [3, 6]\nclass = 1", fillcolor="#9ccef2"] ;
126 -> 128 ;
129 [label="entropy = 0.0\nsamples = 1\nvalue = [2, 0]\nclass = 0", fillcolor="#e58139"] ;
128 -> 129 ;
130 [label="Walc <= 0.5\nentropy = 0.59\nsamples = 5\nvalue = [1, 6]\nclass = 1", fillcolor="#5aade9"] ;
128 -> 130 ;
131 [label="entropy = 0.0\nsamples = 2\nvalue = [0, 3]\nclass = 1", fillcolor="#399de5"] ;
130 -> 131 ;
132 [label="Walc <= 1.5\nentropy = 0.81\nsamples = 3\nvalue = [1, 3]\nclass = 1", fillcolor="#7bbeee"] ;
130 -> 132 ;
133 [label="entropy = 0.0\nsamples = 1\nvalue = [1, 0]\nclass = 0", fillcolor="#e58139"] ;
132 -> 133 ;
134 [label="entropy = 0.0\nsamples = 2\nvalue = [0, 3]\nclass = 1", fillcolor="#399de5"] ;
132 -> 134 ;
135 [label="entropy = 0.0\nsamples = 1\nvalue = [3, 0]\nclass = 0", fillcolor="#e58139"] ;
117 -> 135 ;
136 [label="goout <= 2.5\nentropy = 0.5\nsamples = 20\nvalue = [4, 32]\nclass = 1", fillcolor="#52a9e8"] ;
116 -> 136 ;
137 [label="13 <= 0.5\nentropy = 0.24\nsamples = 15\nvalue = [1, 25]\nclass = 1", fillcolor="#41a1e6"] ;
136 -> 137 ;
138 [label="entropy = 0.0\nsamples = 9\nvalue = [0, 17]\nclass = 1", fillcolor="#399de5"] ;
137 -> 138 ;
139 [label="studytime <= 0.5\nentropy = 0.5\nsamples = 6\nvalue = [1, 8]\nclass = 1", fillcolor="#52a9e8"] ;
137 -> 139 ;
140 [label="entropy = 0.0\nsamples = 1\nvalue = [1, 0]\nclass = 0", fillcolor="#e58139"] ;
139 -> 140 ;
141 [label="entropy = 0.0\nsamples = 5\nvalue = [0, 8]\nclass = 1", fillcolor="#399de5"] ;
139 -> 141 ;
142 [label="absences <= 3.0\nentropy = 0.88\nsamples = 5\nvalue = [3, 7]\nclass = 1", fillcolor="#8ec7f0"] ;
136 -> 142 ;
143 [label="entropy = 0.0\nsamples = 2\nvalue = [3, 0]\nclass = 0", fillcolor="#e58139"] ;
142 -> 143 ;
144 [label="entropy = 0.0\nsamples = 3\nvalue = [0, 7]\nclass = 1", fillcolor="#399de5"] ;
142 -> 144 ;
145 [label="6 <= 0.5\nentropy = 0.4\nsamples = 15\nvalue = [23, 2]\nclass = 0", fillcolor="#e78c4a"] ;
1 -> 145 ;
146 [label="entropy = 0.0\nsamples = 14\nvalue = [23, 0]\nclass = 0", fillcolor="#e58139"] ;
145 -> 146 ;
147 [label="entropy = 0.0\nsamples = 1\nvalue = [0, 2]\nclass = 1", fillcolor="#399de5"] ;
145 -> 147 ;
148 [label="Medu <= 3.5\nentropy = 0.87\nsamples = 26\nvalue = [27, 11]\nclass = 0", fillcolor="#f0b48a"] ;
0 -> 148 [labeldistance=2.5, labelangle=-45, headlabel="False"] ;
149 [label="health <= 3.5\nentropy = 0.68\nsamples = 18\nvalue = [23, 5]\nclass = 0", fillcolor="#eb9c64"] ;
148 -> 149 ;
150 [label="age <= 2.5\nentropy = 0.34\nsamples = 10\nvalue = [15, 1]\nclass = 0", fillcolor="#e78946"] ;
149 -> 150 ;
151 [label="sex <= 0.5\nentropy = 0.65\nsamples = 3\nvalue = [5, 1]\nclass = 0", fillcolor="#ea9a61"] ;
150 -> 151 ;
152 [label="studytime <= 0.5\nentropy = 0.92\nsamples = 2\nvalue = [2, 1]\nclass = 0", fillcolor="#f2c09c"] ;
151 -> 152 ;
153 [label="entropy = 0.0\nsamples = 1\nvalue = [2, 0]\nclass = 0", fillcolor="#e58139"] ;
152 -> 153 ;
154 [label="entropy = 0.0\nsamples = 1\nvalue = [0, 1]\nclass = 1", fillcolor="#399de5"] ;
152 -> 154 ;
155 [label="entropy = 0.0\nsamples = 1\nvalue = [3, 0]\nclass = 0", fillcolor="#e58139"] ;
151 -> 155 ;
156 [label="entropy = 0.0\nsamples = 7\nvalue = [10, 0]\nclass = 0", fillcolor="#e58139"] ;
150 -> 156 ;
157 [label="internet <= 0.5\nentropy = 0.92\nsamples = 8\nvalue = [8, 4]\nclass = 0", fillcolor="#f2c09c"] ;
149 -> 157 ;
158 [label="7 <= 0.5\nentropy = 0.97\nsamples = 4\nvalue = [2, 3]\nclass = 1", fillcolor="#bddef6"] ;
157 -> 158 ;
159 [label="entropy = 0.0\nsamples = 1\nvalue = [2, 0]\nclass = 0", fillcolor="#e58139"] ;
158 -> 159 ;
160 [label="entropy = 0.0\nsamples = 3\nvalue = [0, 3]\nclass = 1", fillcolor="#399de5"] ;
158 -> 160 ;
161 [label="sex <= 0.5\nentropy = 0.59\nsamples = 4\nvalue = [6, 1]\nclass = 0", fillcolor="#e9965a"] ;
157 -> 161 ;
162 [label="entropy = 0.0\nsamples = 1\nvalue = [2, 0]\nclass = 0", fillcolor="#e58139"] ;
161 -> 162 ;
163 [label="famsup <= 0.5\nentropy = 0.72\nsamples = 3\nvalue = [4, 1]\nclass = 0", fillcolor="#eca06a"] ;
161 -> 163 ;
164 [label="entropy = 0.0\nsamples = 2\nvalue = [4, 0]\nclass = 0", fillcolor="#e58139"] ;
163 -> 164 ;
165 [label="entropy = 0.0\nsamples = 1\nvalue = [0, 1]\nclass = 1", fillcolor="#399de5"] ;
163 -> 165 ;
166 [label="studytime <= 0.5\nentropy = 0.97\nsamples = 8\nvalue = [4, 6]\nclass = 1", fillcolor="#bddef6"] ;
148 -> 166 ;
167 [label="entropy = 0.0\nsamples = 2\nvalue = [3, 0]\nclass = 0", fillcolor="#e58139"] ;
166 -> 167 ;
168 [label="8 <= 0.5\nentropy = 0.59\nsamples = 6\nvalue = [1, 6]\nclass = 1", fillcolor="#5aade9"] ;
166 -> 168 ;
169 [label="entropy = 0.0\nsamples = 3\nvalue = [0, 4]\nclass = 1", fillcolor="#399de5"] ;
168 -> 169 ;
170 [label="Dalc <= 1.5\nentropy = 0.92\nsamples = 3\nvalue = [1, 2]\nclass = 1", fillcolor="#9ccef2"] ;
168 -> 170 ;
171 [label="entropy = 0.0\nsamples = 2\nvalue = [0, 2]\nclass = 1", fillcolor="#399de5"] ;
170 -> 171 ;
172 [label="entropy = 0.0\nsamples = 1\nvalue = [1, 0]\nclass = 0", fillcolor="#e58139"] ;
170 -> 172 ;
}